{"learner":{"attributes":{"best_iteration":"16","best_score":"0.566839","scikit_learn":"{\"use_label_encoder\": false, \"n_estimators\": 100, \"objective\": \"binary:logistic\", \"max_depth\": 3, \"learning_rate\": null, \"verbosity\": null, \"booster\": null, \"tree_method\": null, \"gamma\": null, \"min_child_weight\": null, \"max_delta_step\": null, \"subsample\": null, \"colsample_bytree\": null, \"colsample_bylevel\": null, \"colsample_bynode\": null, \"reg_alpha\": null, \"reg_lambda\": null, \"scale_pos_weight\": null, \"base_score\": null, \"missing\": NaN, \"num_parallel_tree\": null, \"kwargs\": {\"eval_metric\": [\"error\", \"logloss\"]}, \"random_state\": null, \"n_jobs\": null, \"monotone_constraints\": null, \"interaction_constraints\": null, \"importance_type\": \"gain\", \"gpu_id\": null, \"validate_parameters\": null, \"classes_\": [0, 1], \"n_classes_\": 2, \"_features_count\": 14, \"n_features_in_\": 14, \"evals_result_\": {\"validation_0\": {\"error\": [0.213592, 0.252427, 0.165049, 0.184466, 0.184466, 0.174757, 0.15534, 0.15534, 0.165049, 0.174757, 0.126214, 0.135922, 0.126214, 0.116505, 0.106796, 0.087379, 0.07767, 0.087379, 0.07767, 0.07767, 0.067961, 0.07767, 0.058252, 0.058252, 0.058252, 0.058252, 0.058252], \"logloss\": [0.616966, 0.573049, 0.52827, 0.488518, 0.462197, 0.444313, 0.422204, 0.409437, 0.390094, 0.381157, 0.366154, 0.358974, 0.346511, 0.334813, 0.321132, 0.316315, 0.309608, 0.299934, 0.291895, 0.288653, 0.279254, 0.273971, 0.267047, 0.263014, 0.260089, 0.25435, 0.247411]}, \"validation_1\": {\"error\": [0.25, 0.416667, 0.166667, 0.5, 0.25, 0.166667, 0.333333, 0.25, 0.25, 0.25, 0.25, 0.166667, 0.166667, 0.25, 0.25, 0.25, 0.25, 0.25, 0.25, 0.25, 0.25, 0.25, 0.25, 0.25, 0.25, 0.25, 0.333333], \"logloss\": [0.621048, 0.6401, 0.591115, 0.63822, 0.60899, 0.58652, 0.624263, 0.606535, 0.606553, 0.609221, 0.638035, 0.620507, 0.602123, 0.580405, 0.6003, 0.585729, 0.566839, 0.578962, 0.586885, 0.578679, 0.609056, 0.59164, 0.608149, 0.606582, 0.585963, 0.602851, 0.636193]}}, \"best_score\": 0.566839, \"best_iteration\": 16, \"best_ntree_limit\": 17, \"type\": \"XGBClassifier\"}"},"gradient_booster":{"model":{"gbtree_model_param":{"num_trees":"27","size_leaf_vector":"0"},"tree_info":[0,0,0,0,0,0,0,0,0,0,0,0,0,0,0,0,0,0,0,0,0,0,0,0,0,0,0],"trees":[{"base_weights":[3.5514018E-1,7.9452056E-1,-5.263158E-1,9.5384616E-1,-3.3333334E-1,-1.2E0,1.8181819E-1,1.0819672E0,-5E-1,5E-1,-1E0,8E-1,-2.5E-1],"categories":[],"categories_nodes":[],"categories_segments":[],"categories_sizes":[],"default_left":[true,true,true,true,true,false,true,false,false,false,false,false,false],"id":0,"left_children":[1,3,5,7,9,-1,11,-1,-1,-1,-1,-1,-1],"loss_changes":[1.0778295E1,3.5974007E0,4.750239E0,3.5678434E0,2.1666667E0,0E0,1.6681819E0,0E0,0E0,0E0,0E0,0E0,0E0],"parents":[2147483647,0,0,1,1,2,2,3,3,4,4,6,6],"right_children":[2,4,6,8,10,-1,12,-1,-1,-1,-1,-1,-1],"split_conditions":[7.5350006E1,2.5E0,7.875E1,2.85E1,2.5954544E1,-3.6E-1,5E-1,3.2459018E-1,-1.5E-1,1.5E-1,-3E-1,2.4000001E-1,-7.5E-2],"split_indices":[1,4,1,3,3,0,2,0,0,0,0,0,0],"split_type":[0,0,0,0,0,0,0,0,0,0,0,0,0],"sum_hessian":[2.575E1,1.725E1,8.5E0,1.525E1,2E0,4E0,4.5E0,1.425E1,1E0,1E0,1E0,1.5E0,3E0],"tree_param":{"num_deleted":"0","num_feature":"14","num_nodes":"13","size_leaf_vector":"0"}},{"base_weights":[2.4828133E-1,5.7220274E-1,-3.9676106E-1,6.9848186E-1,-3.9305514E-1,-9.3889046E-1,1.5830305E-1,1.0925137E0,1.412125E-1,6.623555E-1,-1.939807E-1],"categories":[],"categories_nodes":[],"categories_segments":[],"categories_sizes":[],"default_left":[true,true,true,true,false,false,true,false,false,false,false],"id":1,"left_children":[1,3,5,7,-1,-1,9,-1,-1,-1,-1],"loss_changes":[5.700358E0,2.4500413E0,2.9614587E0,3.39045E0,0E0,0E0,1.1005689E0,0E0,0E0,0E0,0E0],"parents":[2147483647,0,0,1,1,2,2,3,3,6,6],"right_children":[2,4,6,8,-1,-1,10,-1,-1,-1,-1],"split_conditions":[7.5350006E1,5E-1,7.875E1,7.0149994E1,-1.1791655E-1,-2.8166714E-1,5E-1,3.277541E-1,4.2363748E-2,1.9870666E-1,-5.819421E-2],"split_indices":[1,6,1,1,0,0,2,0,0,0,0],"split_type":[0,0,0,0,0,0,0,0,0,0,0],"sum_hessian":[2.5195318E1,1.6847778E1,8.34754E0,1.5143076E1,1.7047031E0,3.8731487E0,4.474391E0,8.308125E0,6.8349514E0,1.4786056E0,2.9957852E0],"tree_param":{"num_deleted":"0","num_feature":"14","num_nodes":"11","size_leaf_vector":"0"}},{"base_weights":[1.8545847E-1,3.5177872E-1,-9.0246636E-1,5.811899E-1,-8.113615E-1,-3.308312E-1,-1.1123981E0,7.1421576E-1,-4.0754542E-1,1.849623E-1,-1.2749736E0],"categories":[],"categories_nodes":[],"categories_segments":[],"categories_sizes":[],"default_left":[true,true,true,true,true,false,false,false,false,false,false],"id":2,"left_children":[1,3,5,7,9,-1,-1,-1,-1,-1,-1],"loss_changes":[4.909365E0,6.5372453E0,6.948018E-2,2.8650084E0,2.1583884E0,0E0,0E0,0E0,0E0,0E0,0E0],"parents":[2147483647,0,0,1,1,2,2,3,3,4,4],"right_children":[2,4,6,8,10,-1,-1,-1,-1,-1,-1],"split_conditions":[2.85E1,2.5E0,5E-1,5E-1,2.5454544E1,-9.924936E-2,-3.3371946E-1,2.1426474E-1,-1.2226363E-1,5.5488694E-2,-3.824921E-1],"split_indices":[3,4,2,6,3,0,0,0,0,0,0],"split_type":[0,0,0,0,0,0,0,0,0,0,0],"sum_hessian":[2.4377459E1,2.1731789E1,2.64567E0,1.8569561E1,3.1622283E0,1.4025327E0,1.2431374E0,1.661218E1,1.9573796E0,1.1950507E0,1.9671775E0],"tree_param":{"num_deleted":"0","num_feature":"14","num_nodes":"11","size_leaf_vector":"0"}},{"base_weights":[1.0856821E-1,5.110484E-1,-2.3862976E-1,7.248394E-1,-4.8561049E-1,-4.459484E-1,9.42318E-1,9.8371035E-1,-4.5109746E-1,-5.778876E-1,3.453383E-1],"categories":[],"categories_nodes":[],"categories_segments":[],"categories_sizes":[],"default_left":[true,true,true,true,false,true,false,false,false,false,false],"id":3,"left_children":[1,3,5,7,-1,9,-1,-1,-1,-1,-1],"loss_changes":[3.5586812E0,2.8467703E0,3.8198028E0,3.5005746E0,0E0,1.5035977E0,0E0,0E0,0E0,0E0,0E0],"parents":[2147483647,0,0,1,1,2,2,3,3,5,5],"right_children":[2,4,6,8,-1,10,-1,-1,-1,-1,-1],"split_conditions":[7.105E1,2.5E0,5E-1,5E-1,-1.4568315E-1,8.52E1,2.826954E-1,2.9511312E-1,-1.3532925E-1,-1.7336628E-1,1.036015E-1],"split_indices":[1,4,12,6,0,1,0,0,0,0,0],"split_type":[0,0,0,0,0,0,0,0,0,0,0],"sum_hessian":[2.359369E1,1.070837E1,1.2885322E1,9.041606E0,1.6667635E0,1.1490511E1,1.39481E0,7.5442753E0,1.4973313E0,1.00795355E1,1.4109762E0],"tree_param":{"num_deleted":"0","num_feature":"14","num_nodes":"11","size_leaf_vector":"0"}},{"base_weights":[9.462161E-2,2.3496175E-1,-7.708521E-1,4.0521663E-1,-5.8709306E-1,-2.5681773E-1,-9.6939814E-1,7.394841E-1,8.347033E-2,2.4318571E-1,-1.0249572E0],"categories":[],"categories_nodes":[],"categories_segments":[],"categories_sizes":[],"default_left":[true,true,true,true,true,false,false,false,false,false,false],"id":4,"left_children":[1,3,5,7,9,-1,-1,-1,-1,-1,-1],"loss_changes":[3.0402896E0,3.1800833E0,1.10096455E-1,1.8748746E0,1.7089612E0,0E0,0E0,0E0,0E0,0E0,0E0],"parents":[2147483647,0,0,1,1,2,2,3,3,4,4],"right_children":[2,4,6,8,10,-1,-1,-1,-1,-1,-1],"split_conditions":[2.85E1,2.5E0,5E-1,7.1149994E1,2.5454544E1,-7.704532E-2,-2.9081947E-1,2.2184522E-1,2.50411E-2,7.295572E-2,-3.0748716E-1],"split_indices":[3,4,2,1,3,0,0,0,0,0,0],"split_type":[0,0,0,0,0,0,0,0,0,0,0],"sum_hessian":[2.253987E1,2.0021774E1,2.5180967E0,1.7006618E1,3.0151544E0,1.3406516E0,1.1774449E0,7.704228E0,9.302391E0,1.1945864E0,1.8205681E0],"tree_param":{"num_deleted":"0","num_feature":"14","num_nodes":"11","size_leaf_vector":"0"}},{"base_weights":[5.5133577E-2,1.748488E-1,-6.6241175E-1,3.139864E-1,-4.9800262E-1,-2.1403605E-1,-8.43389E-1,4.2057687E-1,-3.487038E-1,2.0355392E-1,-8.919306E-1],"categories":[],"categories_nodes":[],"categories_segments":[],"categories_sizes":[],"default_left":[true,true,true,true,true,false,false,false,false,false,false],"id":5,"left_children":[1,3,5,7,9,-1,-1,-1,-1,-1,-1],"loss_changes":[2.0545003E0,2.0411878E0,9.828603E-2,1.3684113E0,1.2418339E0,0E0,0E0,0E0,0E0,0E0,0E0],"parents":[2147483647,0,0,1,1,2,2,3,3,4,4],"right_children":[2,4,6,8,10,-1,-1,-1,-1,-1,-1],"split_conditions":[2.85E1,2.5E0,5E-1,5E-1,2.5454544E1,-6.421082E-2,-2.530167E-1,1.2617306E-1,-1.0461114E-1,6.1066177E-2,-2.675792E-1],"split_indices":[3,4,2,6,3,0,0,0,0,0,0],"split_type":[0,0,0,0,0,0,0,0,0,0,0],"sum_hessian":[2.1568727E1,1.9132915E1,2.435811E0,1.6296371E1,2.8365443E0,1.3280935E0,1.1077174E0,1.4353096E1,1.9432763E0,1.1937805E0,1.6427636E0],"tree_param":{"num_deleted":"0","num_feature":"14","num_nodes":"11","size_leaf_vector":"0"}},{"base_weights":[1.676661E-2,3.9796662E-1,-1.9550903E-1,6.542342E-1,-4.4006446E-1,-3.3867994E-1,7.6696974E-1,-1.7731133E-1,8.4550095E-1,-4.4658348E-1,3.811629E-1],"categories":[],"categories_nodes":[],"categories_segments":[],"categories_sizes":[],"default_left":[true,true,true,true,false,true,false,false,false,false,false],"id":6,"left_children":[1,3,5,7,-1,9,-1,-1,-1,-1,-1],"loss_changes":[1.8392445E0,2.030766E0,2.2788444E0,1.2023356E0,0E0,1.2148337E0,0E0,0E0,0E0,0E0,0E0],"parents":[2147483647,0,0,1,1,2,2,3,3,5,5],"right_children":[2,4,6,8,-1,10,-1,-1,-1,-1,-1],"split_conditions":[7.0149994E1,5E-1,5E-1,6.6350006E1,-1.3201934E-1,8.52E1,2.3009093E-1,-5.31934E-2,2.536503E-1,-1.3397504E-1,1.1434888E-1],"split_indices":[1,6,12,1,0,1,0,0,0,0,0],"split_type":[0,0,0,0,0,0,0,0,0,0,0],"sum_hessian":[2.0767794E1,7.1153812E0,1.3652411E1,5.617029E0,1.498352E0,1.2448749E1,1.2036628E0,1.0640335E0,4.5529957E0,1.1156076E1,1.292672E0],"tree_param":{"num_deleted":"0","num_feature":"14","num_nodes":"11","size_leaf_vector":"0"}},{"base_weights":[2.9363822E-2,1.3293871E-1,-5.7920736E-1,2.5296125E-1,-4.450162E-1,-7.165143E-1,-1.7375523E-1,-2.869864E-1,3.65462E-1,1.6587098E-1,-7.9786825E-1],"categories":[],"categories_nodes":[],"categories_segments":[],"categories_sizes":[],"default_left":[true,true,true,true,true,false,false,false,false,false,false],"id":7,"left_children":[1,3,5,7,9,-1,-1,-1,-1,-1,-1],"loss_changes":[1.4043057E0,1.4172485E0,5.6393743E-2,1.0896441E0,9.0760577E-1,0E0,0E0,0E0,0E0,0E0,0E0],"parents":[2147483647,0,0,1,1,2,2,3,3,4,4],"right_children":[2,4,6,8,10,-1,-1,-1,-1,-1,-1],"split_conditions":[2.85E1,2.5E0,5E-1,2.25E1,2.5454544E1,-2.149543E-1,-5.212657E-2,-8.609593E-2,1.0963861E-1,4.9761295E-2,-2.3936048E-1],"split_indices":[3,4,5,3,3,0,0,0,0,0,0],"split_type":[0,0,0,0,0,0,0,0,0,0,0],"sum_hessian":[2.005743E1,1.7808155E1,2.2492769E0,1.5211529E1,2.5966253E0,1.1071432E0,1.1421337E0,2.3554704E0,1.2856058E1,1.1447138E0,1.4519116E0],"tree_param":{"num_deleted":"0","num_feature":"14","num_nodes":"11","size_leaf_vector":"0"}},{"base_weights":[-6.3186226E-4,2.6939413E-1,-1.9902085E-1,6.235961E-1,-2.1634887E-1,-3.3570763E-1,6.603735E-1,8.531762E-1,-6.0172908E-2,-5.014661E-1,3.7521553E-1,-4.515682E-1,3.4603494E-1],"categories":[],"categories_nodes":[],"categories_segments":[],"categories_sizes":[],"default_left":[true,true,true,true,true,true,false,false,false,false,false,false,false],"id":8,"left_children":[1,3,5,7,9,11,-1,-1,-1,-1,-1,-1,-1],"loss_changes":[1.150982E0,1.7007172E0,1.6763976E0,9.179604E-1,9.6067864E-1,1.0525612E0,0E0,0E0,0E0,0E0,0E0,0E0,0E0],"parents":[2147483647,0,0,1,1,2,2,3,3,4,4,5,5],"right_children":[2,4,6,8,10,12,-1,-1,-1,-1,-1,-1,-1],"split_conditions":[7.1149994E1,2.5454544E1,5E-1,5E-1,5E-1,8.52E1,1.9811206E-1,2.5595286E-1,-1.8051874E-2,-1.5043983E-1,1.1256466E-1,-1.3547046E-1,1.0381049E-1],"split_indices":[1,3,12,10,7,1,0,0,0,0,0,0,0],"split_type":[0,0,0,0,0,0,0,0,0,0,0,0,0],"sum_hessian":[1.948466E1,8.100801E0,1.1383859E1,4.5205994E0,3.5802016E0,1.0347461E1,1.0363977E0,3.1988192E0,1.3217804E0,2.5186088E0,1.0615928E0,9.132962E0,1.2144989E0],"tree_param":{"num_deleted":"0","num_feature":"14","num_nodes":"13","size_leaf_vector":"0"}},{"base_weights":[2.0868428E-2,9.9750675E-2,-4.4808242E-1,1.9876552E-1,-3.9048094E-1,-3.1715427E-2,4.8557293E-1,-7.481387E-1,1.0240248E-1],"categories":[],"categories_nodes":[],"categories_segments":[],"categories_sizes":[],"default_left":[true,true,false,true,true,false,false,false,false],"id":9,"left_children":[1,3,-1,5,7,-1,-1,-1,-1],"loss_changes":[7.772285E-1,9.4012815E-1,0E0,1.0364299E0,6.6243166E-1,0E0,0E0,0E0,0E0],"parents":[2147483647,0,0,1,1,3,3,4,4],"right_children":[2,4,-1,6,8,-1,-1,-1,-1],"split_conditions":[2.85E1,2.5E0,-1.3442473E-1,2.5454544E1,5E-1,-9.514628E-3,1.4567189E-1,-2.2444163E-1,3.0720744E-2],"split_indices":[3,4,0,3,13,0,0,0,0],"split_type":[0,0,0,0,0,0,0,0,0],"sum_hessian":[1.8802498E1,1.6769064E1,2.0334353E0,1.4445892E1,2.3231707E0,8.502571E0,5.943321E0,1.0461538E0,1.2770168E0],"tree_param":{"num_deleted":"0","num_feature":"14","num_nodes":"9","size_leaf_vector":"0"}},{"base_weights":[5.0372845E-3,2.1965015E-1,-1.481631E-1,4.3661875E-1,-4.7873265E-1,-3.3572218E-1,2.1600215E-1,5.9595174E-1,-2.0774935E-1,-6.597394E-1,1.3104528E-1,5.966558E-1,-7.578037E-2],"categories":[],"categories_nodes":[],"categories_segments":[],"categories_sizes":[],"default_left":[true,true,true,true,false,true,true,false,false,false,false,false,false],"id":10,"left_children":[1,3,5,7,-1,9,11,-1,-1,-1,-1,-1,-1],"loss_changes":[6.7073625E-1,1.4951262E0,8.8687766E-1,8.423654E-1,0E0,1.335882E0,5.6297874E-1,0E0,0E0,0E0,0E0,0E0,0E0],"parents":[2147483647,0,0,1,1,2,2,3,3,5,5,6,6],"right_children":[2,4,6,8,-1,10,12,-1,-1,-1,-1,-1,-1],"split_conditions":[7.1149994E1,5E-1,7.875E1,2.5E0,-1.436198E-1,2.55E1,8.045E1,1.7878553E-1,-6.2324807E-2,-1.9792183E-1,3.9313585E-2,1.7899674E-1,-2.2734111E-2],"split_indices":[1,6,1,4,0,3,1,0,0,0,0,0,0],"split_type":[0,0,0,0,0,0,0,0,0,0,0,0,0],"sum_hessian":[1.8410463E1,7.4876056E0,1.0922858E1,5.998766E0,1.4888395E0,7.2611785E0,3.6616802E0,4.869758E0,1.1290079E0,4.0419474E0,3.2192311E0,1.1354847E0,2.5261955E0],"tree_param":{"num_deleted":"0","num_feature":"14","num_nodes":"13","size_leaf_vector":"0"}},{"base_weights":[3.8596306E-3,7.793541E-2,-4.1557264E-1,1.5759546E-1,-3.1047517E-1,2.8800724E-2,5.8625513E-1,2.1416523E-1,-6.631018E-1],"categories":[],"categories_nodes":[],"categories_segments":[],"categories_sizes":[],"default_left":[true,true,false,true,true,false,false,false,false],"id":11,"left_children":[1,3,-1,5,7,-1,-1,-1,-1],"loss_changes":[6.180199E-1,5.7064646E-1,0E0,7.922276E-1,7.35198E-1,0E0,0E0,0E0,0E0],"parents":[2147483647,0,0,1,1,3,3,4,4],"right_children":[2,4,-1,6,8,-1,-1,-1,-1],"split_conditions":[2.85E1,2.5E0,-1.24671794E-1,7.875E1,2.5454544E1,8.640218E-3,1.7587654E-1,6.424957E-2,-1.9893055E-1],"split_indices":[3,4,0,1,3,0,0,0,0],"split_type":[0,0,0,0,0,0,0,0,0],"sum_hessian":[1.7848934E1,1.5861778E1,1.9871547E0,1.3655413E1,2.2063656E0,1.1321078E1,2.3343344E0,1.0447043E0,1.1616611E0],"tree_param":{"num_deleted":"0","num_feature":"14","num_nodes":"9","size_leaf_vector":"0"}},{"base_weights":[-1.8375604E-3,3.338199E-1,-1.04827896E-1,5.3798157E-1,-1.4604889E-1,1.19002566E-1,-4.8307756E-1,9.4226265E-1,-9.6317865E-2,-6.6955484E-2,4.863946E-1,-7.3326015E-1,-8.821364E-2],"categories":[],"categories_nodes":[],"categories_segments":[],"categories_sizes":[],"default_left":[true,true,true,true,false,true,true,false,false,false,false,false,false],"id":12,"left_children":[1,3,5,7,-1,9,11,-1,-1,-1,-1,-1,-1],"loss_changes":[6.743662E-1,5.274248E-1,1.3201458E0,9.697083E-1,0E0,7.2749656E-1,5.0256085E-1,0E0,0E0,0E0,0E0,0E0,0E0],"parents":[2147483647,0,0,1,1,2,2,3,3,5,5,6,6],"right_children":[2,4,6,8,-1,10,12,-1,-1,-1,-1,-1,-1],"split_conditions":[5E-1,5E-1,7.5350006E1,5E-1,-4.3814667E-2,7.145E1,7.875E1,2.826788E-1,-2.8895361E-2,-2.0086646E-2,1.4591838E-1,-2.1997805E-1,-2.6464092E-2],"split_indices":[2,4,1,7,0,1,1,0,0,0,0,0,0],"split_type":[0,0,0,0,0,0,0,0,0,0,0,0,0],"sum_hessian":[1.7495293E1,3.5814986E0,1.39137945E1,2.427577E0,1.1539217E0,9.1717615E0,4.742033E0,1.1860877E0,1.2414892E0,6.6324534E0,2.5393078E0,2.3782187E0,2.3638146E0],"tree_param":{"num_deleted":"0","num_feature":"14","num_nodes":"13","size_leaf_vector":"0"}},{"base_weights":[3.2488678E-3,2.3577213E-1,-1.2844858E-1,6.08743E-1,-2.441008E-1,7.906301E-2,-3.9242977E-1,2.332278E-1,7.6805955E-1,-6.3192454E-4,-4.2551574E-1,3.9026818E-1,-3.2662237E-1,-5.576133E-1,6.4731784E-2],"categories":[],"categories_nodes":[],"categories_segments":[],"categories_sizes":[],"default_left":[true,true,true,true,true,true,true,false,false,false,false,false,false,false,false],"id":13,"left_children":[1,3,5,7,9,11,13,-1,-1,-1,-1,-1,-1,-1,-1],"loss_changes":[5.871699E-1,1.3886045E0,7.0246077E-1,7.121229E-2,1.6508564E-1,1.0989584E0,4.5613074E-1,0E0,0E0,0E0,0E0,0E0,0E0,0E0,0E0],"parents":[2147483647,0,0,1,1,2,2,3,3,4,4,5,5,6,6],"right_children":[2,4,6,8,10,12,14,-1,-1,-1,-1,-1,-1,-1,-1],"split_conditions":[7.055E1,2.5454544E1,5E-1,2.35E1,1.5E0,5E-1,1.5E0,6.996834E-2,2.3041788E-1,-1.8957737E-4,-1.2765473E-1,1.1708046E-1,-9.798671E-2,-1.67284E-1,1.9419536E-2],"split_indices":[1,3,13,3,4,4,4,0,0,0,0,0,0,0,0],"split_type":[0,0,0,0,0,0,0,0,0,0,0,0,0,0,0],"sum_hessian":[1.7185364E1,5.9282565E0,1.1257108E1,3.184569E0,2.7436876E0,6.6948705E0,4.5622373E0,1.6825831E0,1.5019858E0,1.59995E0,1.1437378E0,3.8101048E0,2.8847656E0,3.189915E0,1.3723224E0],"tree_param":{"num_deleted":"0","num_feature":"14","num_nodes":"15","size_leaf_vector":"0"}},{"base_weights":[6.261236E-3,3.2909966E-1,-9.4415426E-2,4.9325746E-1,-7.375207E-2,-3.115975E-1,1.6057195E-1,8.391463E-1,-5.1615346E-2,-8.259198E-1,1.7382324E-2,6.125295E-1,-2.1268538E-1],"categories":[],"categories_nodes":[],"categories_segments":[],"categories_sizes":[],"default_left":[true,true,true,true,false,true,true,false,false,false,false,false,false],"id":14,"left_children":[1,3,5,7,-1,9,11,-1,-1,-1,-1,-1,-1],"loss_changes":[6.1112976E-1,3.3168033E-1,8.464504E-1,6.6575044E-1,0E0,1.385981E0,1.3575147E0,0E0,0E0,0E0,0E0,0E0,0E0],"parents":[2147483647,0,0,1,1,2,2,3,3,5,5,6,6],"right_children":[2,4,6,8,-1,10,12,-1,-1,-1,-1,-1,-1],"split_conditions":[5E-1,5E-1,5E-1,5E-1,-2.212562E-2,2.45E1,5E-1,2.517439E-1,-1.5484604E-2,-2.4777596E-1,5.214697E-3,1.8375885E-1,-6.380562E-2],"split_indices":[2,4,8,7,0,3,4,0,0,0,0,0,0],"split_type":[0,0,0,0,0,0,0,0,0,0,0,0,0],"sum_hessian":[1.6846668E1,3.4653864E0,1.3381282E1,2.302662E0,1.1627245E0,7.1064487E0,6.2748337E0,1.0781608E0,1.2245011E0,2.1830115E0,4.923437E0,2.548252E0,3.7265816E0],"tree_param":{"num_deleted":"0","num_feature":"14","num_nodes":"13","size_leaf_vector":"0"}},{"base_weights":[1.0726268E-2,8.472128E-2,-4.1715345E-1,-1.2831024E-2,3.767493E-1,-2.1829009E-1,1.8598664E-1,5.748832E-1,5.8232896E-2],"categories":[],"categories_nodes":[],"categories_segments":[],"categories_sizes":[],"default_left":[true,true,false,true,true,false,false,false,false],"id":15,"left_children":[1,3,-1,5,7,-1,-1,-1,-1],"loss_changes":[5.9399635E-1,4.5706904E-1,0E0,5.661849E-1,2.1946245E-1,0E0,0E0,0E0,0E0],"parents":[2147483647,0,0,1,1,3,3,4,4],"right_children":[2,4,-1,6,8,-1,-1,-1,-1],"split_conditions":[2.85E1,5E-1,-1.2514605E-1,5E-1,7.205E1,-6.548703E-2,5.5795994E-2,1.7246497E-1,1.746987E-2],"split_indices":[3,7,0,8,1,0,0,0,0],"split_type":[0,0,0,0,0,0,0,0,0],"sum_hessian":[1.6644897E1,1.4874573E1,1.7703241E0,1.1866588E1,3.0079854E0,5.7876563E0,6.0789313E0,1.358222E0,1.6497632E0],"tree_param":{"num_deleted":"0","num_feature":"14","num_nodes":"9","size_leaf_vector":"0"}},{"base_weights":[1.1224837E-2,3.0485463E-1,-8.001158E-2,1.9709913E-2,5.6295156E-1,9.2136435E-2,-3.727498E-1,-6.301253E-2,3.9110374E-1,-6.404769E-1,-4.715209E-3],"categories":[],"categories_nodes":[],"categories_segments":[],"categories_sizes":[],"default_left":[true,true,true,false,false,true,true,false,false,false,false],"id":16,"left_children":[1,3,5,-1,-1,7,9,-1,-1,-1,-1],"loss_changes":[4.9065036E-1,3.0784842E-1,7.4342185E-1,0E0,0E0,4.7281328E-1,5.299E-1,0E0,0E0,0E0,0E0],"parents":[2147483647,0,0,1,1,2,2,5,5,6,6],"right_children":[2,4,6,-1,-1,8,10,-1,-1,-1,-1],"split_conditions":[5E-1,7.69E1,7.5350006E1,5.912974E-3,1.6888547E-1,7.145E1,7.875E1,-1.890376E-2,1.17331125E-1,-1.9214307E-1,-1.4145627E-3],"split_indices":[2,1,1,0,0,1,1,0,0,0,0],"split_type":[0,0,0,0,0,0,0,0,0,0,0],"sum_hessian":[1.6404373E1,3.3337767E0,1.3070598E1,2.0952818E0,1.2384949E0,8.662045E0,4.4085526E0,6.222245E0,2.439799E0,2.123528E0,2.2850246E0],"tree_param":{"num_deleted":"0","num_feature":"14","num_nodes":"11","size_leaf_vector":"0"}},{"base_weights":[1.2076082E-2,2.2971937E-1,-1.09839976E-1,5.8966595E-1,-2.2479154E-1,-3.1113398E-1,1.13772355E-1,-3.5409662E-1,4.8010625E-2,9.92571E-2,-5.68537E-1,2.817279E-1,-3.669671E-1],"categories":[],"categories_nodes":[],"categories_segments":[],"categories_sizes":[],"default_left":[true,true,true,false,true,true,true,false,false,false,false,false,false],"id":17,"left_children":[1,3,5,-1,7,9,11,-1,-1,-1,-1,-1,-1],"loss_changes":[4.800581E-1,1.1923267E0,5.603827E-1,0E0,1.4352593E-1,7.331023E-1,6.0863817E-1,0E0,0E0,0E0,0E0,0E0,0E0],"parents":[2147483647,0,0,1,1,2,2,4,4,5,5,6,6],"right_children":[2,4,6,-1,8,10,12,-1,-1,-1,-1,-1,-1],"split_conditions":[7.055E1,2.5454544E1,2.55E1,1.7689979E-1,6.83E1,5E-1,2.85E1,-1.0622899E-1,1.4403188E-2,2.977713E-2,-1.705611E-1,8.451837E-2,-1.1009014E-1],"split_indices":[1,3,3,0,1,4,3,0,0,0,0,0,0],"split_type":[0,0,0,0,0,0,0,0,0,0,0,0,0],"sum_hessian":[1.6141108E1,5.4778547E0,1.0663252E1,2.8909917E0,2.586863E0,5.405692E0,5.25756E0,1.5528381E0,1.0340251E0,2.3204565E0,3.0852356E0,4.203097E0,1.0544628E0],"tree_param":{"num_deleted":"0","num_feature":"14","num_nodes":"13","size_leaf_vector":"0"}},{"base_weights":[4.750208E-3,2.631503E-1,-7.564515E-2,7.075156E-3,5.100237E-1,-2.5260115E-1,1.3462676E-1,1.859354E-1,-1.7813377E-1,-5.828936E-1,9.5609695E-2,4.699997E-1,-1.9303499E-1],"categories":[],"categories_nodes":[],"categories_segments":[],"categories_sizes":[],"default_left":[true,true,true,true,false,true,true,false,false,false,false,false,false],"id":18,"left_children":[1,3,5,7,-1,9,11,-1,-1,-1,-1,-1,-1],"loss_changes":[3.6686057E-1,2.610507E-1,5.368775E-1,1.3478638E-1,0E0,9.3976045E-1,8.4108585E-1,0E0,0E0,0E0,0E0,0E0,0E0],"parents":[2147483647,0,0,1,1,2,2,3,3,5,5,6,6],"right_children":[2,4,6,8,-1,10,12,-1,-1,-1,-1,-1,-1],"split_conditions":[5E-1,5E-1,5E-1,7.205E1,1.5300712E-1,5E-1,2.45E1,5.578062E-2,-5.3440135E-2,-1.7486809E-1,2.868291E-2,1.4099991E-1,-5.79105E-2],"split_indices":[2,5,8,1,0,4,3,0,0,0,0,0,0],"split_type":[0,0,0,0,0,0,0,0,0,0,0,0,0],"sum_hessian":[1.5701247E1,3.186443E0,1.2514804E1,2.0689924E0,1.1174508E0,6.686456E0,5.828347E0,1.0505404E0,1.0184519E0,3.0856357E0,3.6008208E0,2.665605E0,3.1627424E0],"tree_param":{"num_deleted":"0","num_feature":"14","num_nodes":"13","size_leaf_vector":"0"}},{"base_weights":[9.771311E-3,6.6756405E-2,-3.2737187E-1,1.3013624E-1,-2.557261E-1,-2.866986E-1,2.2270483E-1],"categories":[],"categories_nodes":[],"categories_segments":[],"categories_sizes":[],"default_left":[true,true,false,true,false,false,false],"id":19,"left_children":[1,3,-1,5,-1,-1,-1],"loss_changes":[3.4025905E-1,3.4001595E-1,0E0,5.7338214E-1,0E0,0E0,0E0],"parents":[2147483647,0,0,1,1,3,3],"right_children":[2,4,-1,6,-1,-1,-1],"split_conditions":[2.85E1,2.5E0,-9.8211564E-2,2.25E1,-7.671783E-2,-8.6009584E-2,6.681145E-2],"split_indices":[3,4,0,3,0,0,0],"split_type":[0,0,0,0,0,0,0],"sum_hessian":[1.5573112E1,1.4007508E1,1.5656033E0,1.2205189E1,1.8023193E0,1.8368294E0,1.036836E1],"tree_param":{"num_deleted":"0","num_feature":"14","num_nodes":"7","size_leaf_vector":"0"}},{"base_weights":[-4.764445E-3,2.0280933E-1,-1.06051564E-1,4.9937767E-1,-3.9461213E-1,9.652169E-2,-3.6332142E-1,7.1491987E-1,8.28135E-2,-2.879284E-1,2.7214244E-1,-6.0804236E-1,-5.0218035E-3],"categories":[],"categories_nodes":[],"categories_segments":[],"categories_sizes":[],"default_left":[true,true,true,true,false,true,true,false,false,false,false,false,false],"id":20,"left_children":[1,3,5,7,-1,9,11,-1,-1,-1,-1,-1,-1],"loss_changes":[3.656003E-1,1.2088181E0,6.425191E-1,3.2306397E-1,0E0,5.719891E-1,4.6557665E-1,0E0,0E0,0E0,0E0,0E0,0E0],"parents":[2147483647,0,0,1,1,2,2,3,3,5,5,6,6],"right_children":[2,4,6,8,-1,10,12,-1,-1,-1,-1,-1,-1],"split_conditions":[7.0149994E1,5E-1,5E-1,2.5954544E1,-1.18383646E-1,2.35E1,7.4399994E1,2.1447597E-1,2.4844052E-2,-8.637852E-2,8.164273E-2,-1.8241271E-1,-1.5065412E-3],"split_indices":[1,6,13,3,0,3,1,0,0,0,0,0,0],"split_type":[0,0,0,0,0,0,0,0,0,0,0,0,0],"sum_hessian":[1.5366201E1,4.7104573E0,1.0655745E1,3.2575004E0,1.4529569E0,6.3111744E0,4.34457E0,1.6747217E0,1.5827787E0,1.7784636E0,4.532711E0,2.1672812E0,2.1772888E0],"tree_param":{"num_deleted":"0","num_feature":"14","num_nodes":"13","size_leaf_vector":"0"}},{"base_weights":[-5.444865E-3,2.39915E-1,-8.179145E-2,4.010067E-1,-1.03977524E-1,7.492799E-2,-3.40133E-1,-9.7730555E-2,3.885159E-1,-5.661146E-1,-2.7842095E-2],"categories":[],"categories_nodes":[],"categories_segments":[],"categories_sizes":[],"default_left":[true,true,true,false,false,true,true,false,false,false,false],"id":21,"left_children":[1,3,5,-1,-1,7,9,-1,-1,-1,-1],"loss_changes":[3.224508E-1,2.6831424E-1,5.548663E-1,0E0,0E0,5.2297616E-1,3.4539115E-1,0E0,0E0,0E0,0E0],"parents":[2147483647,0,0,1,1,2,2,5,5,6,6],"right_children":[2,4,6,-1,-1,8,10,-1,-1,-1,-1],"split_conditions":[5E-1,5E-1,7.5350006E1,1.20302014E-1,-3.1193258E-2,7.145E1,7.875E1,-2.9319167E-2,1.16554774E-1,-1.6983439E-1,-8.352629E-3],"split_indices":[2,4,1,0,0,1,1,0,0,0,0],"split_type":[0,0,0,0,0,0,0,0,0,0,0],"sum_hessian":[1.5166001E1,3.0907183E0,1.2075283E1,1.9916676E0,1.0990506E0,7.9577723E0,4.1175103E0,5.576017E0,2.3817554E0,1.917314E0,2.2001963E0],"tree_param":{"num_deleted":"0","num_feature":"14","num_nodes":"11","size_leaf_vector":"0"}},{"base_weights":[-4.355846E-3,1.6863996E-1,-1.1966755E-1,3.5508254E-1,-3.0843496E-1,7.125424E-2,-3.314541E-1,5.083456E-1,9.054376E-2,2.460487E-1,-2.677528E-1,-5.2676255E-1,1.612497E-1],"categories":[],"categories_nodes":[],"categories_segments":[],"categories_sizes":[],"default_left":[true,true,true,true,false,true,true,false,false,false,false,false,false],"id":22,"left_children":[1,3,5,7,-1,9,11,-1,-1,-1,-1,-1,-1],"loss_changes":[3.3810234E-1,7.134093E-1,4.3394274E-1,1.7073798E-1,0E0,4.3089327E-1,5.649296E-1,0E0,0E0,0E0,0E0,0E0,0E0],"parents":[2147483647,0,0,1,1,2,2,3,3,5,5,6,6],"right_children":[2,4,6,8,-1,10,12,-1,-1,-1,-1,-1,-1],"split_conditions":[7.1149994E1,5E-1,5E-1,2.5454544E1,-9.253049E-2,5E-1,1.5E0,1.5250368E-1,2.716313E-2,7.3814616E-2,-8.032584E-2,-1.5802877E-1,4.837491E-2],"split_indices":[1,6,13,3,0,5,4,0,0,0,0,0,0],"split_type":[0,0,0,0,0,0,0,0,0,0,0,0,0],"sum_hessian":[1.4937166E1,5.789311E0,9.147855E0,4.3464227E0,1.4428885E0,5.159876E0,3.9879792E0,2.1684697E0,2.1779528E0,3.5854168E0,1.5744588E0,2.8063946E0,1.1815847E0],"tree_param":{"num_deleted":"0","num_feature":"14","num_nodes":"13","size_leaf_vector":"0"}},{"base_weights":[-3.9969464E-3,2.4861765E-1,-8.4347054E-2,4.0700036E-1,-2.2366386E-2,3.740453E-2,-2.8067625E-1,-2.605732E-1,1.8905209E-1,-4.8481047E-1,-1.5566973E-2],"categories":[],"categories_nodes":[],"categories_segments":[],"categories_sizes":[],"default_left":[true,true,true,false,false,true,true,false,false,false,false],"id":23,"left_children":[1,3,5,-1,-1,7,9,-1,-1,-1,-1],"loss_changes":[3.3944348E-1,1.824809E-1,3.1288967E-1,0E0,0E0,4.419744E-1,2.6086897E-1,0E0,0E0,0E0,0E0],"parents":[2147483647,0,0,1,1,2,2,5,5,6,6],"right_children":[2,4,6,-1,-1,8,10,-1,-1,-1,-1],"split_conditions":[5E-1,5E-1,7.5350006E1,1.22100115E-1,-6.709916E-3,2.35E1,7.875E1,-7.817197E-2,5.671563E-2,-1.4544314E-1,-4.670092E-3],"split_indices":[2,7,1,0,0,3,1,0,0,0,0],"split_type":[0,0,0,0,0,0,0,0,0,0,0],"sum_hessian":[1.4690187E1,3.0396335E0,1.1650554E1,1.6016047E0,1.4380287E0,7.6907144E0,3.9598396E0,2.35163E0,5.339084E0,1.768994E0,2.1908455E0],"tree_param":{"num_deleted":"0","num_feature":"14","num_nodes":"11","size_leaf_vector":"0"}},{"base_weights":[-6.7097927E-3,5.4761752E-2,-3.47779E-1,1.21804684E-1,-2.7232015E-1,1.5089453E-2,4.5026782E-1],"categories":[],"categories_nodes":[],"categories_segments":[],"categories_sizes":[],"default_left":[true,true,false,true,false,false,false],"id":24,"left_children":[1,3,-1,5,-1,-1,-1],"loss_changes":[3.440672E-1,3.401458E-1,0E0,4.2464626E-1,0E0,0E0,0E0],"parents":[2147483647,0,0,1,1,3,3],"right_children":[2,4,-1,6,-1,-1,-1],"split_conditions":[2.85E1,2.5E0,-1.04333706E-1,7.875E1,-8.169605E-2,4.5268363E-3,1.3508035E-1],"split_indices":[3,4,0,1,0,0,0],"split_type":[0,0,0,0,0,0,0],"sum_hessian":[1.4502309E1,1.2998928E1,1.5033804E0,1.13085785E1,1.6903502E0,9.324921E0,1.9836577E0],"tree_param":{"num_deleted":"0","num_feature":"14","num_nodes":"7","size_leaf_vector":"0"}},{"base_weights":[-7.712194E-3,2.184895E-1,-7.9107106E-2,3.5916296E-1,-7.943071E-2,-2.2665136E-1,1.0282522E-1,-5.0577617E-1,7.01488E-2,4.7729772E-1,-1.844129E-1],"categories":[],"categories_nodes":[],"categories_segments":[],"categories_sizes":[],"default_left":[true,true,true,false,false,true,true,false,false,false,false],"id":25,"left_children":[1,3,5,-1,-1,7,9,-1,-1,-1,-1],"loss_changes":[2.647396E-1,1.9372736E-1,3.5564554E-1,0E0,0E0,6.27702E-1,7.583763E-1,0E0,0E0,0E0,0E0],"parents":[2147483647,0,0,1,1,2,2,5,5,6,6],"right_children":[2,4,6,-1,-1,8,10,-1,-1,-1,-1],"split_conditions":[5E-1,5E-1,5E-1,1.0774889E-1,-2.3829212E-2,5E-1,5E-1,-1.5173286E-1,2.1044642E-2,1.4318933E-1,-5.5323873E-2],"split_indices":[2,4,8,0,0,4,4,0,0,0,0],"split_type":[0,0,0,0,0,0,0,0,0,0,0],"sum_hessian":[1.4322656E1,2.9418015E0,1.1380855E1,1.8586209E0,1.0831807E0,6.14862E0,5.2322345E0,2.8058088E0,3.3428113E0,1.9840055E0,3.248229E0],"tree_param":{"num_deleted":"0","num_feature":"14","num_nodes":"11","size_leaf_vector":"0"}},{"base_weights":[-2.2103928E-3,1.9664282E-1,-9.6589625E-2,-3.213316E-1,4.350289E-1,-2.682944E-1,9.799815E-2,6.2357616E-1,1.5687302E-2,-5.243143E-1,5.067946E-2,-1.0452488E-1,3.4113884E-1],"categories":[],"categories_nodes":[],"categories_segments":[],"categories_sizes":[],"default_left":[true,true,true,false,true,true,true,false,false,false,false,false,false],"id":26,"left_children":[1,3,5,-1,7,9,11,-1,-1,-1,-1,-1,-1],"loss_changes":[3.047102E-1,7.8549594E-1,3.936394E-1,0E0,3.069566E-1,5.2539444E-1,3.2550937E-1,0E0,0E0,0E0,0E0,0E0,0E0],"parents":[2147483647,0,0,1,1,2,2,4,4,5,5,6,6],"right_children":[2,4,6,-1,8,10,12,-1,-1,-1,-1,-1,-1],"split_conditions":[7.0149994E1,6.6850006E1,2.5954544E1,-9.639948E-2,2.5954544E1,7.4399994E1,5E-1,1.8707286E-1,4.706191E-3,-1.5729429E-1,1.5203838E-2,-3.1357467E-2,1.0234166E-1],"split_indices":[1,1,3,0,3,1,4,0,0,0,0,0,0],"split_type":[0,0,0,0,0,0,0,0,0,0,0,0,0],"sum_hessian":[1.4223915E1,4.2293363E0,9.994579E0,1.2233181E0,3.0060184E0,5.1082563E0,4.8863225E0,1.7376761E0,1.2683421E0,2.4766529E0,2.6316037E0,2.9768624E0,1.90946E0],"tree_param":{"num_deleted":"0","num_feature":"14","num_nodes":"13","size_leaf_vector":"0"}}]},"name":"gbtree"},"learner_model_param":{"base_score":"5E-1","num_class":"0","num_feature":"14"},"objective":{"name":"binary:logistic","reg_loss_param":{"scale_pos_weight":"1"}}},"version":[1,3,3]}