{"learner":{"attributes":{"best_iteration":"9","best_score":"0.491868","scikit_learn":"{\"use_label_encoder\": false, \"n_estimators\": 50, \"objective\": \"binary:logistic\", \"max_depth\": 10, \"learning_rate\": 0.31, \"verbosity\": null, \"booster\": null, \"tree_method\": null, \"gamma\": 0.4, \"min_child_weight\": null, \"max_delta_step\": null, \"subsample\": 0.4, \"colsample_bytree\": 0.1, \"colsample_bylevel\": null, \"colsample_bynode\": null, \"reg_alpha\": null, \"reg_lambda\": null, \"scale_pos_weight\": null, \"base_score\": null, \"missing\": NaN, \"num_parallel_tree\": null, \"kwargs\": {\"eval_metric\": [\"error\", \"logloss\"]}, \"random_state\": null, \"n_jobs\": null, \"monotone_constraints\": null, \"interaction_constraints\": null, \"importance_type\": \"gain\", \"gpu_id\": null, \"validate_parameters\": null, \"classes_\": [0, 1], \"n_classes_\": 2, \"_features_count\": 110, \"n_features_in_\": 110, \"evals_result_\": {\"validation_0\": {\"error\": [0.281553, 0.262136, 0.203883, 0.184466, 0.194175, 0.174757, 0.126214, 0.165049, 0.184466, 0.174757, 0.174757, 0.145631, 0.106796, 0.116505, 0.116505, 0.126214, 0.116505, 0.087379, 0.087379, 0.097087], \"logloss\": [0.616772, 0.581457, 0.54408, 0.524539, 0.500059, 0.475857, 0.465131, 0.452782, 0.443714, 0.426869, 0.405306, 0.39168, 0.373682, 0.367934, 0.354664, 0.354007, 0.33209, 0.320401, 0.311381, 0.308396]}, \"validation_1\": {\"error\": [0.333333, 0.5, 0.333333, 0.25, 0.25, 0.25, 0.333333, 0.25, 0.333333, 0.166667, 0.25, 0.25, 0.333333, 0.416667, 0.333333, 0.333333, 0.25, 0.25, 0.25, 0.25], \"logloss\": [0.627771, 0.669426, 0.647136, 0.622796, 0.602748, 0.580633, 0.530177, 0.53058, 0.519739, 0.491868, 0.510459, 0.53044, 0.517064, 0.518292, 0.541663, 0.57491, 0.601737, 0.615396, 0.627625, 0.667426]}}, \"best_score\": 0.491868, \"best_iteration\": 9, \"best_ntree_limit\": 10, \"type\": \"XGBClassifier\"}"},"gradient_booster":{"model":{"gbtree_model_param":{"num_trees":"20","size_leaf_vector":"0"},"tree_info":[0,0,0,0,0,0,0,0,0,0,0,0,0,0,0,0,0,0,0,0],"trees":[{"base_weights":[5.217391E-1,1.1515151E0,-8.235294E-1,1.3333334E-1,1.6363636E0,5E-1,-1.3846154E0,-8E-1,1.1111112E0],"categories":[],"categories_nodes":[],"categories_segments":[],"categories_sizes":[],"default_left":[true,true,true,true,false,false,false,false,false],"id":0,"left_children":[1,3,5,7,-1,-1,-1,-1,-1],"loss_changes":[1.0691312E1,3.8545456E0,3.8484163E0,4.311111E0,0E0,0E0,0E0,0E0,0E0],"parents":[2147483647,0,0,1,1,2,2,3,3],"right_children":[2,4,6,8,-1,-1,-1,-1,-1],"split_conditions":[6.6699553E0,3.0966877E3,6.945E1,6.5971975E0,5.072727E-1,1.55E-1,-4.2923078E-1,-2.4800001E-1,3.4444445E-1],"split_indices":[90,55,1,90,0,0,0,0,0],"split_type":[0,0,0,0,0,0,0,0,0],"sum_hessian":[1.05E1,7.25E0,3.25E0,2.75E0,4.5E0,1E0,2.25E0,1.5E0,1.25E0],"tree_param":{"num_deleted":"0","num_feature":"110","num_nodes":"9","size_leaf_vector":"0"}},{"base_weights":[1.1947849E-1,-7.906892E-1,8.4254944E-1,-1.3091767E0,-5.195665E-2,1.1822959E0,-1.7712684E-1],"categories":[],"categories_nodes":[],"categories_segments":[],"categories_sizes":[],"default_left":[true,true,true,false,false,false,false],"id":1,"left_children":[1,3,5,-1,-1,-1,-1],"loss_changes":[7.446861E0,1.8767085E0,2.3662434E0,0E0,0E0,0E0,0E0],"parents":[2147483647,0,0,1,1,2,2],"right_children":[2,4,6,-1,-1,-1,-1],"split_conditions":[7.383564E0,2.2036125E1,1.6872469E-1,-4.0584478E-1,-1.610656E-2,3.6651173E-1,-5.4909322E-2],"split_indices":[32,95,22,0,0,0,0],"split_type":[0,0,0,0,0,0,0],"sum_hessian":[9.303151E0,4.0773096E0,5.225841E0,1.9420605E0,2.1352491E0,3.8001766E0,1.4256644E0],"tree_param":{"num_deleted":"0","num_feature":"110","num_nodes":"7","size_leaf_vector":"0"}},{"base_weights":[-5.320568E-2,-9.471923E-1,2.8789052E-1,-1.1310743E0,-3.011137E-1,7.9280543E-1,-3.68103E-1,-2.1733813E-1,1.2510226E0,-8.4570867E-1,5.4282093E-1,-1.1179341E0,-1.9624734E-1],"categories":[],"categories_nodes":[],"categories_segments":[],"categories_sizes":[],"default_left":[true,true,true,true,true,true,true,false,false,true,false,true,true],"id":2,"left_children":[1,-1,5,-1,-1,7,9,-1,-1,-1,-1,-1,-1],"loss_changes":[3.6756175E0,5.3252935E-2,3.2213051E0,0E0,0E0,2.731937E0,2.429748E0,0E0,0E0,3.7510514E-1,0E0,0E0,0E0],"parents":[2147483647,0,0,1,1,2,2,5,5,6,6,9,9],"right_children":[2,-1,6,-1,-1,8,10,-1,-1,-1,-1,-1,-1],"split_conditions":[1.417785E3,-2.9362962E-1,1.4564958E0,-3.5063303E-1,-9.334525E-2,9.819689E-2,2.144196E0,-6.737482E-2,3.87817E-1,-2.621697E-1,1.6827449E-1,-3.4655958E-1,-6.0836677E-2],"split_indices":[49,24,24,2147483647,2147483647,22,24,0,0,38,0,2147483647,2147483647],"split_type":[0,0,0,0,0,0,0,0,0,0,0,0,0],"sum_hessian":[1.0159509E1,2.3150463E0,7.844463E0,1.2177761E0,1.0972703E0,4.3148146E0,3.529648E0,1.5105286E0,2.804286E0,2.3625395E0,1.1671085E0,1.1564724E0,1.206067E0],"tree_param":{"num_deleted":"4","num_feature":"110","num_nodes":"13","size_leaf_vector":"0"}},{"base_weights":[1.5376654E-1,-5.9382355E-1,6.2154764E-1,-1.181275E0,1.663282E-1,-2.2975484E-1,8.640416E-1,1.2302599E0,1.0180451E-1],"categories":[],"categories_nodes":[],"categories_segments":[],"categories_sizes":[],"default_left":[true,true,true,false,false,false,true,false,false],"id":3,"left_children":[1,3,5,-1,-1,-1,7,-1,-1],"loss_changes":[3.6041355E0,2.0147867E0,1.4740448E0,0E0,0E0,0E0,1.2757907E0,0E0,0E0],"parents":[2147483647,0,0,1,1,2,2,6,6],"right_children":[2,4,6,-1,-1,-1,8,-1,-1],"split_conditions":[5.0193363E-1,2.4178474E0,1.1898571E1,-3.6619526E-1,5.1561743E-2,-7.1224E-2,2.259779E3,3.8138056E-1,3.1559397E-2],"split_indices":[28,16,54,0,0,0,41,0,0],"split_type":[0,0,0,0,0,0,0,0,0],"sum_hessian":[8.250691E0,3.0718808E0,5.178811E0,1.4202789E0,1.6516018E0,1.1597859E0,4.0190253E0,2.2999825E0,1.7190429E0],"tree_param":{"num_deleted":"0","num_feature":"110","num_nodes":"9","size_leaf_vector":"0"}},{"base_weights":[3.051248E-1,6.417456E-1,-5.210529E-1,1.1061633E0,-4.3038268E-2,-9.6033025E-1,2.6798636E-1,3.3700144E-1,1.2415608E0,4.4704503E-1,-6.1634326E-1],"categories":[],"categories_nodes":[],"categories_segments":[],"categories_sizes":[],"default_left":[true,true,true,true,true,false,false,true,true,false,false],"id":4,"left_children":[1,3,5,-1,9,-1,-1,-1,-1,-1,-1],"loss_changes":[3.1947038E0,2.5140908E0,1.480634E0,6.677675E-2,1.4265888E0,0E0,0E0,0E0,0E0,0E0,0E0],"parents":[2147483647,0,0,1,1,2,2,3,3,4,4],"right_children":[2,4,6,-1,10,-1,-1,-1,-1,-1,-1],"split_conditions":[2.8578918E2,5.208334E-1,4.375E-1,3.4291062E-1,2.65E1,-2.9770237E-1,8.307577E-2,1.0447045E-1,3.8488385E-1,1.3858396E-1,-1.9106641E-1],"split_indices":[15,74,74,10,3,0,0,2147483647,2147483647,0,0],"split_type":[0,0,0,0,0,0,0,0,0,0,0],"sum_hessian":[9.2849045E0,6.75561E0,2.529295E0,3.6588478E0,3.0967622E0,1.4853027E0,1.0439923E0,1.069911E0,2.5889368E0,1.7882923E0,1.3084698E0],"tree_param":{"num_deleted":"2","num_feature":"110","num_nodes":"11","size_leaf_vector":"0"}},{"base_weights":[2.3611017E-1,-6.445229E-1,6.990297E-1,-1.0960478E0,2.2470367E-1,1.1003444E0,1.6045298E-1,6.706104E-1,-3.9420763E-1],"categories":[],"categories_nodes":[],"categories_segments":[],"categories_sizes":[],"default_left":[true,true,true,false,false,false,true,false,false],"id":5,"left_children":[1,3,5,-1,-1,-1,7,-1,-1],"loss_changes":[3.965298E0,1.6163832E0,1.14856E0,0E0,0E0,0E0,1.336359E0,0E0,0E0],"parents":[2147483647,0,0,1,1,2,2,6,6],"right_children":[2,4,6,-1,-1,-1,8,-1,-1],"split_conditions":[3.3694916E0,1.9942451E-2,1.0884899E3,-3.3977482E-1,6.965814E-2,3.4110677E-1,3.075119E-2,2.0788923E-1,-1.2220436E-1],"split_indices":[25,12,31,0,0,0,12,0,0],"split_type":[0,0,0,0,0,0,0,0,0],"sum_hessian":[7.6217394E0,2.490895E0,5.1308446E0,1.4675971E0,1.0232979E0,2.3423827E0,2.788462E0,1.3436099E0,1.4448519E0],"tree_param":{"num_deleted":"0","num_feature":"110","num_nodes":"9","size_leaf_vector":"0"}},{"base_weights":[-2.3906964E-1,5.795259E-1,-4.607905E-1,-9.789532E-1,1.3075551E-2,-1.19971E0,-2.791916E-1,-3.0223924E-1,6.881124E-1,-6.386024E-1,4.2128757E-1,7.360915E-4,-9.2521614E-1],"categories":[],"categories_nodes":[],"categories_segments":[],"categories_sizes":[],"default_left":[true,false,true,true,true,true,true,true,false,true,false,false,false],"id":6,"left_children":[1,-1,3,-1,7,-1,-1,9,-1,11,-1,-1,-1],"loss_changes":[2.1126068E0,0E0,2.1142066E0,2.9860234E-1,1.3695034E0,0E0,0E0,1.3433619E0,0E0,6.2571526E-1,0E0,0E0,0E0],"parents":[2147483647,0,0,2,2,3,3,4,4,7,7,9,9],"right_children":[2,-1,4,-1,8,-1,-1,10,-1,12,-1,-1,-1],"split_conditions":[1.0416667E-1,1.7965303E-1,3.958333E-1,-3.034755E-1,1.481376E0,-3.719101E-1,-8.65494E-2,3.958333E-1,2.1331485E-1,2.0833334E-1,1.3059914E-1,2.2818838E-4,-2.86817E-1],"split_indices":[80,0,71,74,24,2147483647,2147483647,80,0,80,0,0,0],"split_type":[0,0,0,0,0,0,0,0,0,0,0,0,0],"sum_hessian":[9.168428E0,1.6101129E0,7.5583158E0,3.101263E0,4.4570527E0,1.8144083E0,1.2868549E0,3.4144158E0,1.0426369E0,2.410954E0,1.003462E0,1.0550115E0,1.3559425E0],"tree_param":{"num_deleted":"2","num_feature":"110","num_nodes":"13","size_leaf_vector":"0"}},{"base_weights":[-2.818527E-2,-1.0351875E0,3.702822E-1,8.142273E-1,-8.3567613E-1,1.3091478E-1,1.0214975E0],"categories":[],"categories_nodes":[],"categories_segments":[],"categories_sizes":[],"default_left":[true,false,true,true,false,false,false],"id":7,"left_children":[1,-1,3,5,-1,-1,-1],"loss_changes":[3.7746027E0,0E0,4.3167543E0,6.4112926E-1,0E0,0E0,0E0],"parents":[2147483647,0,0,2,2,3,3],"right_children":[2,-1,4,6,-1,-1,-1],"split_conditions":[1.0483739E3,-3.2090813E-1,2.5453992E3,6.25E-2,-2.590596E-1,4.058358E-2,3.1666422E-1],"split_indices":[43,0,43,85,0,0,0],"split_type":[0,0,0,0,0,0,0],"sum_hessian":[7.4516544E0,1.6596032E0,5.7920513E0,4.470991E0,1.3210602E0,1.4202929E0,3.0506983E0],"tree_param":{"num_deleted":"0","num_feature":"110","num_nodes":"7","size_leaf_vector":"0"}},{"base_weights":[-1.02546275E-1,-1.0273165E0,2.5324717E-1,-4.7840154E-1,5.8926374E-1,8.2102954E-1,-1.5775391E-1],"categories":[],"categories_nodes":[],"categories_segments":[],"categories_sizes":[],"default_left":[true,false,true,false,true,false,false],"id":8,"left_children":[1,-1,3,-1,5,-1,-1],"loss_changes":[2.9804437E0,0E0,1.9469681E0,0E0,1.0106527E0,0E0,0E0],"parents":[2147483647,0,0,2,2,4,4],"right_children":[2,-1,4,-1,6,-1,-1],"split_conditions":[9.260477E2,-3.184681E-1,1.3560738E1,-1.4830448E-1,2.4178383E1,2.5451916E-1,-4.8903715E-2],"split_indices":[35,0,52,0,52,0,0],"split_type":[0,0,0,0,0,0,0],"sum_hessian":[7.2676415E0,1.4948543E0,5.772787E0,1.6834557E0,4.0893316E0,3.045404E0,1.0439276E0],"tree_param":{"num_deleted":"0","num_feature":"110","num_nodes":"7","size_leaf_vector":"0"}},{"base_weights":[-3.4045342E-1,1.7687285E-1,-8.1083286E-1,5.5600125E-1,-3.0699882E-1,-1.2750554E0,3.1117177E-1,1.782085E-1,6.664091E-1,-1.5189908E0,-4.5673394E-1],"categories":[],"categories_nodes":[],"categories_segments":[],"categories_sizes":[],"default_left":[true,true,true,true,false,true,false,true,true,true,true],"id":9,"left_children":[1,3,5,-1,-1,-1,-1,-1,-1,-1,-1],"loss_changes":[2.2479346E0,1.0768651E0,2.8494155E0,1.160109E-2,0E0,1.0264397E-2,0E0,0E0,0E0,0E0,0E0],"parents":[2147483647,0,0,1,1,2,2,3,3,5,5],"right_children":[2,4,6,-1,-1,-1,-1,-1,-1,-1,-1],"split_conditions":[1.2432955E3,2.610031E2,1.0416667E-1,1.7236039E-1,-9.516963E-2,-3.952672E-1,9.646325E-2,5.5244636E-2,2.0658681E-1,-4.7088712E-1,-1.4158753E-1],"split_indices":[33,15,87,15,0,16,0,2147483647,2147483647,2147483647,2147483647],"split_type":[0,0,0,0,0,0,0,0,0,0,0],"sum_hessian":[7.6484895E0,3.9396336E0,3.7088556E0,2.1253157E0,1.814318E0,2.5269408E0,1.1819148E0,1.0718294E0,1.0534862E0,1.2870531E0,1.2398877E0],"tree_param":{"num_deleted":"4","num_feature":"110","num_nodes":"11","size_leaf_vector":"0"}},{"base_weights":[5.666029E-1,-2.8625637E-1,8.7069315E-1,5.1506853E-1,-9.9172753E-1,9.890907E-1,1.4930001E-1,1.1228352E0,3.4025094E-1],"categories":[],"categories_nodes":[],"categories_segments":[],"categories_sizes":[],"default_left":[true,true,true,false,false,true,false,true,true],"id":10,"left_children":[1,3,5,-1,-1,-1,-1,-1,-1],"loss_changes":[2.6128283E0,2.2904005E0,4.4727325E-1,0E0,0E0,1.2177563E-1,0E0,0E0,0E0],"parents":[2147483647,0,0,1,1,2,2,5,5],"right_children":[2,4,6,-1,-1,-1,-1,-1,-1],"split_conditions":[6.4259043E0,5.4235125E0,1.3150926E1,1.5967125E-1,-3.0743554E-1,3.0661812E-1,4.6283003E-2,3.480789E-1,1.05477795E-1],"split_indices":[38,38,38,0,0,75,0,2147483647,2147483647],"split_type":[0,0,0,0,0,0,0,0,0],"sum_hessian":[8.113636E0,2.1479862E0,5.9656496E0,1.1320344E0,1.0159518E0,4.805818E0,1.1598318E0,3.3788188E0,1.4269993E0],"tree_param":{"num_deleted":"2","num_feature":"110","num_nodes":"9","size_leaf_vector":"0"}},{"base_weights":[4.1222173E-1,9.0312797E-1,-1.0161628E-1,4.1680244E-1,-8.820896E-1,-1.7599596E-1,8.553126E-1],"categories":[],"categories_nodes":[],"categories_segments":[],"categories_sizes":[],"default_left":[true,false,true,true,false,false,false],"id":11,"left_children":[1,-1,3,5,-1,-1,-1],"loss_changes":[2.2445521E0,0E0,2.418509E0,1.118777E0,0E0,0E0,0E0],"parents":[2147483647,0,0,2,2,3,3],"right_children":[2,-1,4,6,-1,-1,-1],"split_conditions":[2.456133E2,2.7996966E-1,5.1063794E-1,4.4972534E1,-2.7344778E-1,-5.4558747E-2,2.651469E-1],"split_indices":[15,0,30,23,0,0,0],"split_type":[0,0,0,0,0,0,0],"sum_hessian":[7.5344357E0,3.4657474E0,4.0686884E0,2.7247634E0,1.3439249E0,1.4131082E0,1.3116552E0],"tree_param":{"num_deleted":"0","num_feature":"110","num_nodes":"7","size_leaf_vector":"0"}},{"base_weights":[-5.115233E-1,-1.1085688E0,-2.0778941E-2,8.5271794E-1,-7.106635E-1,-8.660755E-1,-1.9512203E-1],"categories":[],"categories_nodes":[],"categories_segments":[],"categories_sizes":[],"default_left":[true,false,true,false,true,true,true],"id":12,"left_children":[1,-1,3,-1,-1,-1,-1],"loss_changes":[2.0945876E0,0E0,3.6106036E0,0E0,9.791064E-2,0E0,0E0],"parents":[2147483647,0,0,2,2,4,4],"right_children":[2,-1,4,-1,-1,-1,-1],"split_conditions":[7.6986995E0,-3.4365633E-1,1.8770767E3,2.6434258E-1,-2.2030568E-1,-2.684834E-1,-6.048783E-2],"split_indices":[36,0,35,0,35,2147483647,2147483647],"split_type":[0,0,0,0,0,0,0],"sum_hessian":[6.2274623E0,2.2414877E0,3.9859746E0,1.654765E0,2.3312094E0,1.2687931E0,1.0624163E0],"tree_param":{"num_deleted":"2","num_feature":"110","num_nodes":"7","size_leaf_vector":"0"}},{"base_weights":[2.665474E-1,-4.5418763E-1,6.8108696E-1,1.6101435E-2,-6.9735014E-1,3.85672E-2,9.176216E-1],"categories":[],"categories_nodes":[],"categories_segments":[],"categories_sizes":[],"default_left":[true,true,true,true,true,false,false],"id":13,"left_children":[1,-1,5,-1,-1,-1,-1],"loss_changes":[2.4150486E0,3.7412953E-1,7.054169E-1,0E0,0E0,0E0,0E0],"parents":[2147483647,0,0,1,1,2,2],"right_children":[2,-1,6,-1,-1,-1,-1],"split_conditions":[2.1789804E0,-1.4079817E-1,1.2345669E3,4.9914448E-3,-2.1617855E-1,1.1955832E-2,2.844627E-1],"split_indices":[16,30,39,2147483647,2147483647,0,0],"split_type":[0,0,0,0,0,0,0],"sum_hessian":[6.0478463E0,2.1734154E0,3.8744307E0,1.0590127E0,1.1144029E0,1.3554779E0,2.5189528E0],"tree_param":{"num_deleted":"2","num_feature":"110","num_nodes":"7","size_leaf_vector":"0"}},{"base_weights":[-5.4817438E-2,-4.8980567E-1,7.4734795E-1,3.671463E-1,-9.7754896E-1,-1.7693874E-1,-1.3582784E0],"categories":[],"categories_nodes":[],"categories_segments":[],"categories_sizes":[],"default_left":[true,true,false,false,true,false,false],"id":14,"left_children":[1,3,-1,-1,5,-1,-1],"loss_changes":[2.5174E0,2.2823188E0,0E0,0E0,7.3680663E-1,0E0,0E0],"parents":[2147483647,0,0,1,1,4,4],"right_children":[2,4,-1,-1,6,-1,-1],"split_conditions":[3.30053E1,2.3870121E1,2.3167786E-1,1.1381536E-1,1.4583334E-1,-5.485101E-2,-4.210663E-1],"split_indices":[7,7,0,0,81,0,0],"split_type":[0,0,0,0,0,0,0],"sum_hessian":[5.165504E0,3.6017745E0,1.5637296E0,1.3961067E0,2.2056675E0,1.1829205E0,1.022747E0],"tree_param":{"num_deleted":"0","num_feature":"110","num_nodes":"7","size_leaf_vector":"0"}},{"base_weights":[2.8366587E-1,-4.2062747E-1,5.3430325E-1,7.6334053E-1,-5.7467245E-2,1.16582E-1,9.3106943E-1],"categories":[],"categories_nodes":[],"categories_segments":[],"categories_sizes":[],"default_left":[true,false,true,true,false,true,true],"id":15,"left_children":[1,-1,3,-1,-1,-1,-1],"loss_changes":[1.5778451E0,0E0,8.6982226E-1,3.756547E-1,0E0,0E0,0E0],"parents":[2147483647,0,0,2,2,3,3],"right_children":[2,-1,4,-1,-1,-1,-1],"split_conditions":[9.550925E3,-1.3039452E-1,5E-1,2.3663557E-1,-1.7814847E-2,3.614042E-2,2.8863153E-1],"split_indices":[18,0,106,28,0,2147483647,2147483647],"split_type":[0,0,0,0,0,0,0],"sum_hessian":[6.665339E0,1.5714154E0,5.0939236E0,3.463495E0,1.6304287E0,1.0623112E0,2.4011838E0],"tree_param":{"num_deleted":"2","num_feature":"110","num_nodes":"7","size_leaf_vector":"0"}},{"base_weights":[-6.598252E-2,5.276125E-1,-8.609518E-1,8.4707063E-1,-3.608659E-1,3.7620414E-2,-1.1431754E0,1.1718304E-1,1.0336976E0],"categories":[],"categories_nodes":[],"categories_segments":[],"categories_sizes":[],"default_left":[true,true,true,true,false,false,false,false,false],"id":16,"left_children":[1,3,5,7,-1,-1,-1,-1,-1],"loss_changes":[4.8551545E0,1.9971308E0,1.1504147E0,5.166416E-1,0E0,0E0,0E0,0E0,0E0],"parents":[2147483647,0,0,1,1,2,2,3,3],"right_children":[2,4,6,8,-1,-1,-1,-1,-1],"split_conditions":[7.395E1,7.0985176E7,8.734609E-2,3.263717E0,-1.11868426E-1,1.1662329E-2,-3.5438436E-1,3.632674E-2,3.2044625E-1],"split_indices":[1,20,6,25,0,0,0,0,0],"split_type":[0,0,0,0,0,0,0,0,0],"sum_hessian":[8.32613E0,4.9593487E0,3.3667815E0,3.6820493E0,1.2772994E0,1.0118501E0,2.3549314E0,1.0812484E0,2.6008008E0],"tree_param":{"num_deleted":"0","num_feature":"110","num_nodes":"9","size_leaf_vector":"0"}},{"base_weights":[-6.6986154E-3,7.541234E-1,-8.8221E-1,2.1096939E-1,9.227553E-1,-1.2720892E0,7.2446587E-3],"categories":[],"categories_nodes":[],"categories_segments":[],"categories_sizes":[],"default_left":[true,true,true,true,true,false,false],"id":17,"left_children":[1,-1,5,-1,-1,-1,-1],"loss_changes":[5.3267293E0,1.9765568E-1,1.2973728E0,0E0,0E0,0E0,0E0],"parents":[2147483647,0,0,1,1,2,2],"right_children":[2,-1,6,-1,-1,-1,-1],"split_conditions":[1.5069851E-2,2.3377825E-1,1.875E-1,6.540051E-2,2.8605413E-1,-3.9434767E-1,2.245844E-3],"split_indices":[17,8,73,2147483647,2147483647,0,0],"split_type":[0,0,0,0,0,0,0],"sum_hessian":[5.998012E0,3.2833872E0,2.714625E0,1.3111882E0,1.9721988E0,1.5882493E0,1.1263756E0],"tree_param":{"num_deleted":"2","num_feature":"110","num_nodes":"7","size_leaf_vector":"0"}},{"base_weights":[-2.796655E-1,7.84691E-3,-8.171893E-1,-7.114433E-1,4.6064082E-1,-1.7884624E-1,7.523032E-1],"categories":[],"categories_nodes":[],"categories_segments":[],"categories_sizes":[],"default_left":[true,true,false,false,true,false,false],"id":18,"left_children":[1,3,-1,-1,5,-1,-1],"loss_changes":[1.1815073E0,2.2637346E0,0E0,0E0,9.281546E-1,0E0,0E0],"parents":[2147483647,0,0,1,1,4,4],"right_children":[2,4,-1,-1,6,-1,-1],"split_conditions":[1.9405699E-1,1.0536088E-1,-2.5332868E-1,-2.2054742E-1,4.847344E-1,-5.5442333E-2,2.3321399E-1],"split_indices":[22,22,0,0,30,0,0],"split_type":[0,0,0,0,0,0,0],"sum_hessian":[6.6035895E0,4.9443445E0,1.659245E0,1.6894007E0,3.254944E0,1.1406987E0,2.1142454E0],"tree_param":{"num_deleted":"0","num_feature":"110","num_nodes":"7","size_leaf_vector":"0"}},{"base_weights":[3.8913158E-1,7.6933205E-1,-4.025167E-1,9.738023E-1,1.0535714E-1,-7.566801E-1,1.5611812E-1],"categories":[],"categories_nodes":[],"categories_segments":[],"categories_sizes":[],"default_left":[true,true,true,false,false,false,false],"id":19,"left_children":[1,3,5,-1,-1,-1,-1],"loss_changes":[2.7041037E0,6.736629E-1,7.586798E-1,0E0,0E0,0E0,0E0],"parents":[2147483647,0,0,1,1,2,2],"right_children":[2,4,6,-1,-1,-1,-1],"split_conditions":[2.7688478E1,5.6105185E-1,3.569164E1,3.0187872E-1,3.2660715E-2,-2.3457083E-1,4.8396617E-2],"split_indices":[54,19,54,0,0,0,0],"split_type":[0,0,0,0,0,0,0],"sum_hessian":[6.9553285E0,4.7177505E0,2.237578E0,3.250223E0,1.4675275E0,1.1524384E0,1.0851395E0],"tree_param":{"num_deleted":"0","num_feature":"110","num_nodes":"7","size_leaf_vector":"0"}}]},"name":"gbtree"},"learner_model_param":{"base_score":"5E-1","num_class":"0","num_feature":"110"},"objective":{"name":"binary:logistic","reg_loss_param":{"scale_pos_weight":"1"}}},"version":[1,3,3]}