{"learner":{"attributes":{"best_iteration":"4","best_score":"0.642994","scikit_learn":"{\"use_label_encoder\": false, \"n_estimators\": 100, \"objective\": \"binary:logistic\", \"max_depth\": 9, \"learning_rate\": null, \"verbosity\": null, \"booster\": null, \"tree_method\": null, \"gamma\": null, \"min_child_weight\": null, \"max_delta_step\": null, \"subsample\": null, \"colsample_bytree\": null, \"colsample_bylevel\": null, \"colsample_bynode\": null, \"reg_alpha\": null, \"reg_lambda\": null, \"scale_pos_weight\": null, \"base_score\": null, \"missing\": NaN, \"num_parallel_tree\": null, \"kwargs\": {\"eval_metric\": [\"error\", \"logloss\"]}, \"random_state\": null, \"n_jobs\": null, \"monotone_constraints\": null, \"interaction_constraints\": null, \"importance_type\": \"gain\", \"gpu_id\": null, \"validate_parameters\": null, \"classes_\": [0.0, 1.0], \"n_classes_\": 2, \"_features_count\": 11, \"n_features_in_\": 11, \"evals_result_\": {\"validation_0\": {\"error\": [0.221311, 0.190574, 0.172131, 0.172131, 0.157787, 0.14959, 0.131148, 0.131148, 0.108607, 0.102459, 0.092213, 0.094262, 0.090164, 0.090164, 0.079918], \"logloss\": [0.619612, 0.57019, 0.531064, 0.497474, 0.476988, 0.454799, 0.434843, 0.420239, 0.404909, 0.393589, 0.381649, 0.373679, 0.364486, 0.350968, 0.341906]}, \"validation_1\": {\"error\": [0.390805, 0.402299, 0.367816, 0.344828, 0.367816, 0.37931, 0.367816, 0.390805, 0.37931, 0.390805, 0.390805, 0.390805, 0.390805, 0.390805, 0.413793], \"logloss\": [0.674922, 0.671969, 0.66012, 0.650727, 0.642994, 0.649693, 0.647431, 0.649956, 0.652757, 0.650745, 0.66616, 0.671239, 0.66721, 0.669232, 0.681143]}}, \"best_score\": 0.642994, \"best_iteration\": 4, \"best_ntree_limit\": 5, \"type\": \"XGBClassifier\"}"},"gradient_booster":{"model":{"gbtree_model_param":{"num_trees":"15","size_leaf_vector":"0"},"tree_info":[0,0,0,0,0,0,0,0,0,0,0,0,0,0,0],"trees":[{"base_weights":[-1.0569106E-1,1.312336E-1,-8.869565E-1,2.31454E-1,-5.833333E-1,-1.3103448E0,-4.262295E-1,3.715415E-1,-1.8181819E-1,-7.368421E-1,-0E0,9.52381E-2,-1.3043479E0,2.010582E-1,8.235294E-1,1E0,-2.857143E-1,1.8181819E-1,-9.677419E-1,-5E-1,4E-1,5.6E-1,-4.7619048E-1,-2.5E-1,4.1860464E-1,1.018868E0,1.0526316E-1,-7.058824E-1,-0E0,-1.8181819E-1,-1.1666666E0,1.2727273E0,-0E0,-9.0909094E-1,-0E0,6.2068963E-1,-8.717949E-1,6.1904764E-1,4.0816326E-2,5.185185E-1,1.3333334E0,-3.3333334E-1,5.4545456E-1,-9.3333334E-1,5E-1,-4.6153846E-1,3.75E-1,5.4545456E-1,-5.4545456E-1,4E-1,-5E-1,-0E0,1.2E0,-1.3333334E-1,-1.1428572E0,7.2E-1,-1.5384616E-1,6E-1,-3.030303E-1,7.368421E-1,-0E0,-5E-1,-0E0,-2.2222222E-1,-1.04E0,4.6153846E-1,-1.0588236E0,7.2727275E-1,-2.857143E-1,-2.857143E-1,5E-1,-5.4545456E-1,5E-1,9.4736844E-1,4.390244E-1,-1E0,6.666667E-1,1.3333334E-1,1.1111112E0,-7.4074075E-2,-8E-1,8.5714287E-1,2.2222222E-1,-5E-1,5E-1,-1.1578947E0,-4E-1,1E0,-2.2222222E-1,-2.2222222E-1,-1.3333334E0,-0E0,8.888889E-1,2.2222222E-1,-6.666667E-1,-1E0,4E-1,1.0666667E0,3.3333334E-1,-6.666667E-1,6.666667E-1,5E-1,-1.8181819E-1,1.8181819E-1,-6.666667E-1,1.0769231E0,2.2222222E-1],"categories":[],"categories_nodes":[],"categories_segments":[],"categories_sizes":[],"default_left":[true,true,true,true,true,false,true,true,true,true,true,true,false,true,true,false,true,false,true,false,false,true,true,true,true,true,true,true,true,false,false,false,true,false,true,true,true,true,true,true,false,true,false,true,false,true,true,false,false,false,false,true,false,true,false,true,true,true,true,true,true,false,false,false,true,true,true,true,true,true,false,false,false,true,true,false,false,true,false,true,false,false,false,false,false,false,false,false,false,false,false,false,true,false,false,false,false,false,false,false,false,false,false,false,false,false,false],"id":0,"left_children":[1,3,5,7,9,-1,11,13,15,17,19,21,-1,23,25,-1,27,-1,29,-1,-1,31,33,35,37,39,41,43,45,-1,-1,-1,47,-1,49,51,53,55,57,59,-1,61,-1,63,-1,65,67,-1,-1,-1,-1,69,-1,71,-1,73,75,77,79,81,83,-1,-1,-1,85,87,89,91,93,95,-1,-1,-1,97,99,-1,-1,101,-1,103,-1,-1,-1,-1,-1,-1,-1,-1,-1,-1,-1,-1,105,-1,-1,-1,-1,-1,-1,-1,-1,-1,-1,-1,-1,-1,-1],"loss_changes":[2.288383E1,6.9562674E0,5.049652E0,4.9451447E0,1.0745611E0,0E0,7.107355E0,4.7082396E0,2.987013E0,2.1910791E0,9E-1,3.055238E0,0E0,4.74111E0,2.277937E0,0E0,2.5210085E0,0E0,9.9951124E-1,0E0,0E0,2.4945455E0,1.0822511E0,9.20336E0,2.4168649E0,1.3934307E0,1.0988835E0,2.798039E0,2.5096154E0,0E0,0E0,0E0,1.6363636E0,0E0,9E-1,2.6068966E0,1.7992678E0,1.7493048E0,2.5371675E0,7.641325E-1,0E0,1.6666666E-1,0E0,3.377781E-1,0E0,4.0723977E0,2.0698054E0,0E0,0E0,0E0,0E0,7.8571427E-1,0E0,1.251515E0,0E0,7.819252E-1,2.9230769E0,1.0444443E0,8.794613E-1,1.03592396E-1,1E0,0E0,0E0,0E0,8.420944E-3,1.4188035E0,6.79739E-1,6.464646E-1,8.253969E-1,2.1142857E0,0E0,0E0,0E0,3.403511E-1,3.0243902E0,0E0,0E0,5.2424246E-1,0E0,1.1447812E0,0E0,0E0,0E0,0E0,0E0,0E0,0E0,0E0,0E0,0E0,0E0,0E0,3.2478642E-1,0E0,0E0,0E0,0E0,0E0,0E0,0E0,0E0,0E0,0E0,0E0,0E0,0E0,0E0],"parents":[2147483647,0,0,1,1,2,2,3,3,4,4,6,6,7,7,8,8,9,9,10,10,11,11,13,13,14,14,16,16,18,18,21,21,22,22,23,23,24,24,25,25,26,26,27,27,28,28,32,32,34,34,35,35,36,36,37,37,38,38,39,39,41,41,43,43,45,45,46,46,51,51,53,53,55,55,56,56,57,57,58,58,59,59,60,60,64,64,65,65,66,66,67,67,68,68,69,69,73,73,74,74,77,77,79,79,92,92],"right_children":[2,4,6,8,10,-1,12,14,16,18,20,22,-1,24,26,-1,28,-1,30,-1,-1,32,34,36,38,40,42,44,46,-1,-1,-1,48,-1,50,52,54,56,58,60,-1,62,-1,64,-1,66,68,-1,-1,-1,-1,70,-1,72,-1,74,76,78,80,82,84,-1,-1,-1,86,88,90,92,94,96,-1,-1,-1,98,100,-1,-1,102,-1,104,-1,-1,-1,-1,-1,-1,-1,-1,-1,-1,-1,-1,106,-1,-1,-1,-1,-1,-1,-1,-1,-1,-1,-1,-1,-1,-1],"split_conditions":[2.6870731E1,8.05E1,1.5E0,2.4580826E1,5E-1,-3.9310345E-1,6.95E1,2.5E0,5.85E1,5E-1,8.25E1,5E-1,-3.9130437E-1,5E-1,5E-1,3E-1,6.65E1,5.454546E-2,8.25E1,-1.5E-1,1.20000005E-1,2.5E0,5E-1,1.7711115E1,5E-1,2.2290924E1,6.65E1,1.5E0,2.572578E1,-5.454546E-2,-3.5E-1,3.818182E-1,6.35E1,-2.7272728E-1,6.4E1,5E-1,6.65E1,3.5E0,6.65E1,7.15E1,4.0000004E-1,6.45E1,1.6363637E-1,5E-1,1.5E-1,6.95E1,5E-1,1.6363637E-1,-1.6363637E-1,1.20000005E-1,-1.5E-1,7.35E1,3.6E-1,6.4E1,-3.4285718E-1,7.05E1,7.05E1,1.5E0,2.3435875E1,5E-1,7.65E1,-1.5E-1,-0E0,-6.666667E-2,2.5E0,5E-1,5E-1,6.9E1,1.5E0,1.5421211E1,1.5E-1,-1.6363637E-1,1.5E-1,5E-1,7.25E1,-3E-1,2.0000002E-1,2.2290924E1,3.3333337E-1,7.65E1,-2.4000001E-1,2.5714287E-1,6.666667E-2,-1.5E-1,1.5E-1,-3.4736842E-1,-1.20000005E-1,3E-1,-6.666667E-2,-6.666667E-2,-4.0000004E-1,-0E0,2.5E0,6.666667E-2,-2.0000002E-1,-3E-1,1.20000005E-1,3.2000002E-1,1.0000001E-1,-2.0000002E-1,2.0000002E-1,1.5E-1,-5.454546E-2,5.454546E-2,-2.0000002E-1,3.2307696E-1,6.666667E-2],"split_indices":[4,1,9,4,5,0,1,10,1,2,1,3,0,2,5,0,1,0,1,0,0,9,7,4,7,4,1,3,4,0,0,0,1,0,1,10,1,3,1,1,0,1,0,10,0,1,8,0,0,0,0,1,0,1,0,1,1,3,4,2,1,0,0,0,9,0,3,1,9,4,0,0,0,5,1,0,0,4,0,1,0,0,0,0,0,0,0,0,0,0,0,0,10,0,0,0,0,0,0,0,0,0,0,0,0,0,0],"split_type":[0,0,0,0,0,0,0,0,0,0,0,0,0,0,0,0,0,0,0,0,0,0,0,0,0,0,0,0,0,0,0,0,0,0,0,0,0,0,0,0,0,0,0,0,0,0,0,0,0,0,0,0,0,0,0,0,0,0,0,0,0,0,0,0,0,0,0,0,0,0,0,0,0,0,0,0,0,0,0,0,0,0,0,0,0,0,0,0,0,0,0,0,0,0,0,0,0,0,0,0,0,0,0,0,0,0,0],"sum_hessian":[1.22E2,9.425E1,2.775E1,8.325E1,1.1E1,1.35E1,1.425E1,6.225E1,2.1E1,8.5E0,2.5E0,9.5E0,4.75E0,4.625E1,1.6E1,1E0,2E1,1.75E0,6.75E0,1E0,1.5E0,5.25E0,4.25E0,1.5E1,3.125E1,1.225E1,3.75E0,7.5E0,1.25E1,1.75E0,5E0,1.75E0,3.5E0,1.75E0,2.5E0,6.25E0,8.75E0,2E1,1.125E1,5.75E0,6.5E0,2E0,1.75E0,6.5E0,1E0,5.5E0,7E0,1.75E0,1.75E0,1.5E0,1E0,3.5E0,2.75E0,2.75E0,6E0,1.775E1,2.25E0,4E0,7.25E0,3.75E0,2E0,1E0,1E0,1.25E0,5.25E0,2.25E0,3.25E0,4.5E0,2.5E0,2.5E0,1E0,1.75E0,1E0,8.5E0,9.25E0,1E0,1.25E0,2.75E0,1.25E0,5.75E0,1.5E0,2.5E0,1.25E0,1E0,1E0,3.75E0,1.5E0,1E0,1.25E0,1.25E0,2E0,1E0,3.5E0,1.25E0,1.25E0,1E0,1.5E0,6.5E0,2E0,1.25E0,8E0,1E0,1.75E0,4.5E0,1.25E0,2.25E0,1.25E0],"tree_param":{"num_deleted":"0","num_feature":"11","num_nodes":"107","size_leaf_vector":"0"}},{"base_weights":[-7.655706E-2,1.0027017E-1,-6.67284E-1,2.8271598E-1,-1.476742E-1,-3.4671852E-1,-1.0595143E0,4.2955106E-1,-1.2057699E-1,5.890619E-1,-2.3267461E-1,-8.381804E-1,8.510506E-2,1.6915512E-1,5.754339E-1,1.8109581E-1,-5.371674E-1,9.769468E-1,-2.2946376E-1,-7.294047E-1,-5.6456152E-2,-1.1865683E-1,-1.1731408E0,-6.650494E-1,2.6925367E-1,-7.391357E-1,3.1494275E-1,2.9804778E-1,7.555867E-1,5.1546997E-1,-1.1444351E-1,2.5196525E-1,-7.652923E-1,-1.0143362E0,1.4179161E-1,1.1855662E-1,-6.817065E-1,-6.742017E-3,-1.7099269E-1,9.8734105E-1,1.727266E-2,6.68398E-1,7.436868E-2,-4.262781E-1,4.6748987E-1,1.01011395E-1,8.7720096E-1,-1.0812699E-1,9.1230005E-1,-3.994167E-1,2.994964E-1,-2.4421085E-1,-9.909829E-1,-1.225267E-1,4.9708968E-1,-8.2688674E-2,-8.079614E-1,4.093033E-1,-4.2525324E-1,-2.277344E-1,9.673402E-1,-4.4292963E-1,3.416565E-1,8.8526666E-1,2.5082374E-1,1.1704452E0,3.5853034E-1,4.3991353E-2,-6.814028E-1,7.569807E-1,-2.7728355E-1,8.3273894E-1,3.6450773E-3,-1.0129465E0,-8.2688674E-2,1.4315262E-1,5.2647567E-1,8.362601E-3,-7.4465317E-1,-1.695518E-1,6.2106967E-1,3.98799E-1,-3.0581975E-1,-5.7688195E-1,7.98893E-1,-5.629332E-1,2.070481E-1,1.5399344E-1,1.1036975E0,-2.566676E-1,3.3879036E-1,1.0102587E0,-2.549998E-1,-2.1540384E-1,6.5942234E-1,2.6060775E-1,1.0474905E0,-1.0273978E0,-1.4012803E-1,-3.4165967E-1,5.8988243E-1],"categories":[],"categories_nodes":[],"categories_segments":[],"categories_sizes":[],"default_left":[true,true,true,true,true,true,false,true,true,true,true,true,true,true,true,true,true,false,false,true,true,true,false,false,true,false,true,true,true,true,true,false,true,false,false,true,true,false,false,false,true,true,true,false,true,false,true,false,false,true,false,false,false,true,true,false,true,true,false,false,false,true,true,false,true,false,true,false,false,false,true,true,true,false,false,false,false,false,false,false,true,true,false,false,true,true,true,false,false,false,false,false,false,false,false,false,false,false,false,false,false],"id":1,"left_children":[1,3,5,7,9,11,-1,13,15,17,19,21,23,25,27,29,31,-1,-1,33,35,37,-1,-1,39,-1,41,43,45,47,49,-1,51,-1,-1,53,55,-1,-1,-1,57,59,61,-1,63,-1,65,-1,-1,67,-1,-1,-1,69,71,-1,73,75,-1,-1,-1,77,79,-1,81,-1,83,-1,-1,-1,85,87,89,-1,-1,-1,-1,-1,-1,-1,91,93,-1,-1,95,97,99,-1,-1,-1,-1,-1,-1,-1,-1,-1,-1,-1,-1,-1,-1],"loss_changes":[1.2674093E1,4.283E0,3.1451435E0,3.270625E0,2.667112E0,3.649136E0,0E0,1.4246998E0,2.018712E0,1.6409165E0,3.1922138E0,1.7833438E0,1.5441065E0,2.3254116E0,1.0372772E0,1.0091987E0,1.3942088E0,0E0,0E0,2.5241127E0,3.183085E0,2.0204928E-2,0E0,0E0,1.5473468E0,0E0,1.1678456E0,1.622822E0,1.0788021E0,1.2599857E0,8.182466E-1,0E0,3.959508E-1,0E0,0E0,2.1600218E0,4.132948E-1,0E0,0E0,0E0,1.4609209E0,1.740236E0,1.4849246E0,0E0,6.7198896E-1,0E0,1.4415817E0,0E0,0E0,5.221334E-1,0E0,0E0,0E0,2.2317436E0,1.5120077E0,0E0,6.787791E-1,6.318617E-2,0E0,0E0,0E0,5.1293564E-1,1.0942824E0,0E0,7.7261347E-1,0E0,2.8752656E0,0E0,0E0,0E0,1.9654161E0,8.3048606E-1,4.9766356E-1,0E0,0E0,0E0,0E0,0E0,0E0,0E0,1.857143E0,1.2104394E0,0E0,0E0,3.1641316E-1,1.5595968E0,1.3965548E0,0E0,0E0,0E0,0E0,0E0,0E0,0E0,0E0,0E0,0E0,0E0,0E0,0E0,0E0],"parents":[2147483647,0,0,1,1,2,2,3,3,4,4,5,5,7,7,8,8,9,9,10,10,11,11,12,12,13,13,14,14,15,15,16,16,19,19,20,20,21,21,24,24,26,26,27,27,28,28,29,29,30,30,32,32,35,35,36,36,40,40,41,41,42,42,44,44,46,46,49,49,53,53,54,54,56,56,57,57,61,61,62,62,64,64,66,66,70,70,71,71,72,72,80,80,81,81,84,84,85,85,86,86],"right_children":[2,4,6,8,10,12,-1,14,16,18,20,22,24,26,28,30,32,-1,-1,34,36,38,-1,-1,40,-1,42,44,46,48,50,-1,52,-1,-1,54,56,-1,-1,-1,58,60,62,-1,64,-1,66,-1,-1,68,-1,-1,-1,70,72,-1,74,76,-1,-1,-1,78,80,-1,82,-1,84,-1,-1,-1,86,88,90,-1,-1,-1,-1,-1,-1,-1,92,94,-1,-1,96,98,100,-1,-1,-1,-1,-1,-1,-1,-1,-1,-1,-1,-1,-1,-1],"split_conditions":[2.6870731E1,7.15E1,6.85E1,2.4580826E1,1.6566162E1,1.5E0,-3.178543E-1,2.1145971E1,5E-1,7.95E1,5E-1,5E-1,5.95E1,6.25E1,1.5E0,5E-1,5E-1,2.9308406E-1,-6.883913E-2,7.9E1,8.25E1,6.5E1,-3.5194224E-1,-1.9951482E-1,6.15E1,-2.2174071E-1,6.55E1,5E-1,6.25E1,6.65E1,2.5E0,7.558958E-2,2.572578E1,-3.0430087E-1,4.2537484E-2,5E-1,1.8856068E1,-2.0226052E-3,-5.129781E-2,2.9620233E-1,2.5E0,1.5E0,5E-1,-1.2788343E-1,2.2290924E1,3.030342E-2,2.3435875E1,-3.24381E-2,2.7369002E-1,6.35E1,8.984893E-2,-7.326326E-2,-2.9729488E-1,2.0001019E1,1.5E0,-2.4806604E-2,1.5E0,6.55E1,-1.2757598E-1,-6.832033E-2,2.9020205E-1,5E-1,5E-1,2.6558E-1,2.5E0,3.5113358E-1,6.55E1,1.3197406E-2,-2.0442085E-1,2.2709422E-1,1.5E0,7.55E1,7.75E1,-3.0388397E-1,-2.4806604E-2,4.2945787E-2,1.5794271E-1,2.5087802E-3,-2.2339596E-1,-5.0865542E-2,2.5E0,5E-1,-9.174593E-2,-1.7306459E-1,2.5E0,2.2290924E1,5E-1,4.6198033E-2,3.311093E-1,-7.700029E-2,1.0163711E-1,3.030776E-1,-7.649994E-2,-6.462116E-2,1.9782671E-1,7.8182325E-2,3.1424716E-1,-3.0821934E-1,-4.203841E-2,-1.02497905E-1,1.7696473E-1],"split_indices":[4,1,1,4,4,9,0,4,0,1,2,10,1,1,9,7,9,0,0,1,1,1,0,0,1,0,1,2,1,1,9,0,4,0,0,6,4,0,0,0,10,9,3,0,4,0,4,0,0,1,0,0,0,4,10,0,3,1,0,0,0,2,10,0,3,0,1,0,0,0,10,1,1,0,0,0,0,0,0,0,9,3,0,0,10,4,3,0,0,0,0,0,0,0,0,0,0,0,0,0,0],"split_type":[0,0,0,0,0,0,0,0,0,0,0,0,0,0,0,0,0,0,0,0,0,0,0,0,0,0,0,0,0,0,0,0,0,0,0,0,0,0,0,0,0,0,0,0,0,0,0,0,0,0,0,0,0,0,0,0,0,0,0,0,0,0,0,0,0,0,0,0,0,0,0,0,0,0,0,0,0,0,0,0,0,0,0,0,0,0,0,0,0,0,0,0,0,0,0,0,0,0,0,0,0],"sum_hessian":[1.1969302E2,9.275743E1,2.6935596E1,5.335603E1,3.94014E1,1.5858547E1,1.1077048E1,3.9067E1,1.4289029E1,3.4622705E0,3.593913E1,6.9769726E0,8.881574E0,1.4803241E1,2.426376E1,8.6154585E0,5.67357E0,2.217766E0,1.2445045E0,8.588996E0,2.7350136E1,2.646438E0,4.330535E0,1.2358181E0,7.645756E0,1.4845016E0,1.3318739E1,1.0598848E1,1.3664912E1,3.693009E0,4.9224496E0,1.2488897E0,4.4246807E0,6.3483996E0,2.2405958E0,2.2001982E1,5.3481526E0,1.2029264E0,1.4435116E0,1.2279806E0,6.417775E0,4.673707E0,8.645033E0,1.7219846E0,8.8768635E0,2.4278524E0,1.123706E1,1.7190844E0,1.9739246E0,2.9361615E0,1.9862883E0,1.966477E0,2.4582036E0,1.3854515E1,8.147468E0,1.2190918E0,4.1290607E0,3.4428518E0,2.9749236E0,1.2286896E0,3.4450173E0,2.7212691E0,5.9237633E0,1.9776642E0,6.899199E0,6.37574E0,4.8613195E0,1.4694791E0,1.4666824E0,1.490777E0,1.2363738E1,4.4398227E0,3.7076452E0,2.9099689E0,1.2190918E0,1.7315212E0,1.7113304E0,1.4799582E0,1.241311E0,2.23247E0,3.6912932E0,5.6743293E0,1.22487E0,1.4567965E0,3.4045231E0,7.6749244E0,4.688813E0,1.7141759E0,2.7256465E0,2.2185907E0,1.4890544E0,2.4498076E0,1.2414854E0,1.7421544E0,3.9321747E0,1.7226977E0,1.6818253E0,2.9758766E0,4.699048E0,1.9711543E0,2.717659E0],"tree_param":{"num_deleted":"0","num_feature":"11","num_nodes":"101","size_leaf_vector":"0"}},{"base_weights":[-5.6282017E-2,7.871416E-2,-5.1985574E-1,1.4370435E-1,-3.825271E-1,-2.9039854E-1,-9.0712184E-1,9.021583E-1,1.0387422E-1,-5.0391525E-1,4.5449525E-2,2.8894714E-3,-8.70359E-1,-1.1221012E0,-2.616437E-1,2.0890167E-1,1.1349243E0,2.0585705E-1,-1.9592337E-1,-8.318752E-1,-8.124799E-2,-2.012529E-1,2.730395E-1,-5.250775E-1,2.568731E-1,-2.4442722E-1,-1.1991655E0,-5.1331496E-1,1.671706E-1,9.165615E-2,5.413886E-1,1.1540701E-1,-4.2641628E-1,-2.559046E-1,-9.518638E-1,6.1357594E-1,-4.670778E-1,-7.9962116E-1,-2.0452553E-1,-5.584025E-1,4.4543347E-1,-3.9040628E-1,1.0456691E-2,6.140991E-1,-2.6980683E-2,6.877779E-1,6.3480176E-3,-3.3763567E-1,4.8665494E-1,-5.861155E-1,2.544076E-1,2.455715E-1,-9.791241E-1,1.4662506E-1,-4.3482348E-1,6.9157976E-1,-5.502982E-1,5.135863E-2,1.0426362E0,-6.479917E-1,1.6250432E-1,3.73914E-1,9.7120965E-1,-4.2155683E-1,3.948725E-1,1.1269157E-1,-7.3979217E-1,6.938634E-1,6.336658E-2,-2.391106E-1,-8.412719E-1,9.9070865E-1,1.5450694E-1,-2.4238695E-1,4.9260175E-1,-3.1666815E-1,-8.789274E-1,3.1670716E-1,-8.1357256E-2,8.203204E-3,6.495572E-1,1.0073644E0,1.1847966E-1,-6.993119E-1,4.0481028E-1,-1.0261317E0,-2.8040907E-1,1.1896691E0,2.646724E-1,-1.641132E-1,3.795472E-1,2.067921E-1,-6.7109865E-1,-1.1881562E0,3.4447454E-2,-3.8346362E-1,4.624441E-1,1.4993417E-1,-4.8791257E-1,4.338697E-1,-3.1667447E-1,8.060623E-2,9.401571E-1,-2.0524348E-1,-9.300587E-1],"categories":[],"categories_nodes":[],"categories_segments":[],"categories_sizes":[],"default_left":[true,true,true,true,true,true,true,true,true,true,true,true,true,false,true,false,false,true,true,true,true,false,false,true,true,true,false,false,false,true,true,true,true,false,false,false,true,false,true,false,true,false,false,true,true,true,true,true,true,true,false,false,false,false,false,true,false,true,false,true,true,true,false,false,false,false,false,true,false,true,true,true,true,false,false,true,true,true,true,true,true,false,false,true,false,false,false,false,false,false,false,false,false,false,false,false,false,false,false,false,false,false,false,false,false],"id":2,"left_children":[1,3,5,7,9,11,13,15,17,19,21,23,25,-1,27,-1,-1,29,31,33,35,-1,-1,37,39,41,-1,-1,-1,43,45,47,49,-1,-1,-1,51,-1,53,-1,55,-1,-1,57,59,61,63,65,67,69,-1,-1,-1,-1,-1,71,-1,73,-1,75,77,79,-1,-1,-1,-1,-1,81,-1,83,85,87,89,-1,-1,91,93,95,97,99,101,-1,-1,103,-1,-1,-1,-1,-1,-1,-1,-1,-1,-1,-1,-1,-1,-1,-1,-1,-1,-1,-1,-1,-1],"loss_changes":[7.363272E0,2.7973835E0,2.0931797E0,2.3506675E0,6.240705E-1,3.085319E0,1.0102639E0,3.9338636E-1,2.4253526E0,1.193501E0,2.5001454E-1,1.8826143E0,9.603586E-1,0E0,4.7989747E-1,0E0,0E0,2.1994452E0,1.5068479E0,1.0296416E-1,1.649287E0,0E0,0E0,2.3793006E-1,1.7047968E0,1.2885895E-1,0E0,0E0,0E0,2.8053513E0,1.1470475E0,1.7500391E0,1.4412999E0,0E0,0E0,0E0,1.640256E0,0E0,3.4261686E-1,0E0,2.402314E0,0E0,0E0,1.9645851E0,4.532787E0,6.6283417E-1,8.5929745E-1,9.593E-1,4.4645214E-1,6.7798686E-1,0E0,0E0,0E0,0E0,0E0,9.8065495E-1,0E0,7.2464556E-1,0E0,4.1006732E-1,1.1399257E0,7.102719E-1,0E0,0E0,0E0,0E0,0E0,5.396521E-1,0E0,1.9438779E0,2.6434588E-1,3.13169E-1,3.2824755E-1,0E0,0E0,1.1143894E0,1.3792617E0,2.050331E0,1.2272378E0,6.993681E-1,5.9136426E-1,0E0,0E0,2.2353506E-1,0E0,0E0,0E0,0E0,0E0,0E0,0E0,0E0,0E0,0E0,0E0,0E0,0E0,0E0,0E0,0E0,0E0,0E0,0E0,0E0,0E0],"parents":[2147483647,0,0,1,1,2,2,3,3,4,4,5,5,6,6,7,7,8,8,9,9,10,10,11,11,12,12,14,14,17,17,18,18,19,19,20,20,23,23,24,24,25,25,29,29,30,30,31,31,32,32,36,36,38,38,40,40,43,43,44,44,45,45,46,46,47,47,48,48,49,49,55,55,57,57,59,59,60,60,61,61,67,67,69,69,70,70,71,71,72,72,75,75,76,76,77,77,78,78,79,79,80,80,83,83],"right_children":[2,4,6,8,10,12,14,16,18,20,22,24,26,-1,28,-1,-1,30,32,34,36,-1,-1,38,40,42,-1,-1,-1,44,46,48,50,-1,-1,-1,52,-1,54,-1,56,-1,-1,58,60,62,64,66,68,70,-1,-1,-1,-1,-1,72,-1,74,-1,76,78,80,-1,-1,-1,-1,-1,82,-1,84,86,88,90,-1,-1,92,94,96,98,100,102,-1,-1,104,-1,-1,-1,-1,-1,-1,-1,-1,-1,-1,-1,-1,-1,-1,-1,-1,-1,-1,-1,-1,-1],"split_conditions":[2.6870731E1,8.05E1,7.05E1,5.85E1,5E-1,5E-1,5E-1,2.28634E1,2.4580826E1,5E-1,5E-1,1.5E0,5E-1,-3.3663037E-1,5E-1,6.267051E-2,3.404773E-1,2.5E0,1.5E0,8.25E1,5E-1,-6.037587E-2,8.191185E-2,6.35E1,5.95E1,5E-1,-3.5974964E-1,-1.539945E-1,5.015118E-2,1.7711115E1,5E-1,2.572578E1,7.65E1,-7.677138E-2,-2.8555915E-1,1.8407279E-1,5E-1,-2.3988636E-1,6.55E1,-1.6752075E-1,2.9160635E1,-1.1712189E-1,3.1370074E-3,5E-1,5E-1,5E-1,6.65E1,5E-1,5E-1,2.572578E1,7.632229E-2,7.367145E-2,-2.9373726E-1,4.398752E-2,-1.3044704E-1,5E-1,-1.6508947E-1,7.35E1,3.1279087E-1,2.2290924E1,7.15E1,6.55E1,2.913629E-1,-1.2646705E-1,1.1846175E-1,3.380747E-2,-2.2193766E-1,5E-1,1.9009974E-2,2.5E0,6.9E1,5E-1,2.8015682E1,-7.271609E-2,1.4778054E-1,5E-1,5E-1,2.0001019E1,5E-1,6.35E1,2.2290924E1,3.0220932E-1,3.55439E-2,5E-1,1.21443085E-1,-3.0783954E-1,-8.4122725E-2,3.5690075E-1,7.9401724E-2,-4.923396E-2,1.1386417E-1,6.2037632E-2,-2.013296E-1,-3.564469E-1,1.0334237E-2,-1.1503909E-1,1.3873324E-1,4.4980254E-2,-1.4637378E-1,1.3016091E-1,-9.5002346E-2,2.418187E-2,2.8204715E-1,-6.1573047E-2,-2.7901763E-1],"split_indices":[4,1,1,1,5,0,8,4,4,3,9,9,10,0,3,0,0,10,10,1,2,0,0,1,1,7,0,0,0,4,5,4,1,0,0,0,7,0,1,0,4,0,0,10,2,0,1,0,8,4,0,0,0,0,0,3,0,1,0,4,1,1,0,0,0,0,0,9,0,10,1,7,4,0,0,7,7,4,7,1,4,0,0,0,0,0,0,0,0,0,0,0,0,0,0,0,0,0,0,0,0,0,0,0,0],"split_type":[0,0,0,0,0,0,0,0,0,0,0,0,0,0,0,0,0,0,0,0,0,0,0,0,0,0,0,0,0,0,0,0,0,0,0,0,0,0,0,0,0,0,0,0,0,0,0,0,0,0,0,0,0,0,0,0,0,0,0,0,0,0,0,0,0,0,0,0,0,0,0,0,0,0,0,0,0,0,0,0,0,0,0,0,0,0,0,0,0,0,0,0,0,0,0,0,0,0,0,0,0,0,0,0,0],"sum_hessian":[1.160066E2,9.048646E1,2.552014E1,7.991469E1,1.0571766E1,1.7123968E1,8.396173E0,2.9070916E0,7.70076E1,8.0975895E0,2.474176E0,1.2033568E1,5.0903993E0,5.7445283E0,2.651644E0,1.2076806E0,1.6994112E0,5.7694782E1,1.9312819E1,4.0144796E0,4.08311E0,1.2427666E0,1.2314094E0,3.561907E0,8.471662E0,2.353514E0,2.7368853E0,1.5467811E0,1.1048629E0,4.399417E1,1.370061E1,8.4281225E0,1.0884695E1,1.2322347E0,2.7822452E0,1.2470592E0,2.8360505E0,1.1136147E0,2.4482923E0,1.2228864E0,7.2487745E0,1.158377E0,1.195137E0,7.36861E0,3.662556E1,1.0533212E1,3.1673982E0,3.8366752E0,4.5914474E0,8.929283E0,1.9554117E0,1.4033397E0,1.4327106E0,1.1136147E0,1.3346776E0,6.056945E0,1.1918298E0,3.6696262E0,3.698984E0,7.996939E0,2.8628622E1,6.09881E0,4.4344015E0,1.46685E0,1.7005482E0,2.1494942E0,1.687181E0,2.653354E0,1.9380937E0,4.6044655E0,4.324818E0,3.3477385E0,2.7092063E0,2.4735801E0,1.196046E0,4.2585025E0,3.738437E0,1.7355421E1,1.1273203E1,3.0637398E0,3.0350704E0,1.2315612E0,1.4217927E0,2.6351435E0,1.969322E0,2.6288064E0,1.6960117E0,2.1264365E0,1.221302E0,1.2335045E0,1.4757018E0,1.8874575E0,2.3710449E0,2.5681362E0,1.1703005E0,2.7090414E0,1.46463785E1,7.5877185E0,3.685484E0,1.1809413E0,1.8827986E0,1.4579678E0,1.5771025E0,1.440424E0,1.1947196E0],"tree_param":{"num_deleted":"0","num_feature":"11","num_nodes":"105","size_leaf_vector":"0"}},{"base_weights":[-5.048655E-2,5.8370944E-2,-4.3601498E-1,7.6157093E-1,2.6747907E-2,-3.0045462E-1,-9.701028E-1,1.2624227E-1,1.0088326E0,5.689758E-2,-5.795259E-1,-1.0210002E-1,-6.988026E-1,1.3029753E-1,-1.6422258E-1,-1.0149876E0,1.5290326E-1,2.8050634E-1,-5.3489506E-1,-1.1486906E-1,-1.0866749E0,4.8746377E-2,4.0136907E-1,1.1110029E-1,-3.8780436E-1,-1.3338798E-1,7.6169735E-1,-1.08130746E-1,-8.448622E-1,2.6521856E-1,-4.442185E-1,-1.8673192E-1,1.6216011E-1,4.940708E-1,-2.266573E-1,-1.8438397E-1,5.2898437E-1,-6.451855E-1,-5.743334E-2,-4.7750404E-1,3.363889E-1,1.879633E-1,8.9799774E-1,-5.47544E-1,2.850122E-1,6.1279897E-2,-8.203155E-1,3.210791E-1,-1.128564E-1,6.377268E-1,2.0796652E-1,3.8389993E-1,-4.976463E-1,-2.41861E-1,9.654387E-1,-8.7671626E-1,-1.1328509E-1,-3.4799924E-1,2.9121765E-1,-8.2356673E-1,5.9187107E-2,-1.4522114E-1,4.6651217E-1,-1.1089586E0,2.8832572E-2,8.5675865E-1,2.2130695E-1,1.4378975E-1,-5.016784E-1,8.943675E-1,1.3039467E-1,-3.9808244E-1,4.4951427E-1,4.901235E-2,-8.764542E-1,-2.442311E-2,-5.842365E-1,1.7946237E-1,-8.4875834E-1,-2.5497103E-1,1.1894661E0,-4.0192775E-2,3.4951115E-1,-3.8281816E-1,3.0206004E-1,5.159495E-1,-9.9689025E-1,-3.468052E-1,5.622122E-1,6.638854E-1,1.2009831E-1],"categories":[],"categories_nodes":[],"categories_segments":[],"categories_sizes":[],"default_left":[true,true,true,true,true,true,false,false,false,true,true,true,true,true,true,false,false,true,true,true,false,true,true,true,true,true,true,true,false,false,false,true,true,true,false,true,true,true,true,true,false,false,false,false,false,true,true,true,true,true,true,false,true,false,false,false,false,true,false,false,false,true,true,false,false,false,true,true,true,false,true,false,true,false,false,false,false,false,false,false,false,false,false,false,false,false,false,false,false,false,false],"id":3,"left_children":[1,3,5,7,9,11,-1,-1,-1,13,15,17,19,21,23,-1,-1,25,27,29,-1,31,33,35,37,39,41,43,-1,-1,-1,45,47,49,-1,51,53,55,57,59,-1,-1,-1,-1,-1,61,63,65,67,69,71,-1,73,-1,-1,-1,-1,75,-1,-1,-1,77,79,-1,-1,-1,81,83,85,-1,87,-1,89,-1,-1,-1,-1,-1,-1,-1,-1,-1,-1,-1,-1,-1,-1,-1,-1,-1,-1],"loss_changes":[4.765185E0,1.9576892E0,1.5175095E0,4.6828198E-1,1.6078994E0,1.6176789E0,0E0,0E0,0E0,1.3683338E0,1.4855585E0,2.7070036E0,1.4458354E0,1.3701301E0,1.3434768E0,0E0,0E0,1.8645784E0,9.1261196E-1,6.0427487E-1,0E0,1.3512912E0,9.5036674E-1,1.3624902E0,9.7316587E-1,1.067483E0,1.6295314E-1,9.057915E-1,0E0,0E0,0E0,2.6499279E0,1.5187246E0,3.9603972E-1,0E0,1.391372E0,1.7480764E0,7.1105003E-1,7.396037E-1,7.268826E-1,0E0,0E0,0E0,0E0,0E0,1.140561E0,1.189754E0,9.732535E-1,1.3856057E0,9.353061E-1,1.025594E0,0E0,1.0332165E0,0E0,0E0,0E0,0E0,2.8323805E-1,0E0,0E0,0E0,2.2664552E0,2.684433E0,0E0,0E0,0E0,6.7415535E-1,8.412549E-1,3.263997E0,0E0,9.954748E-1,0E0,2.454614E-1,0E0,0E0,0E0,0E0,0E0,0E0,0E0,0E0,0E0,0E0,0E0,0E0,0E0,0E0,0E0,0E0,0E0,0E0],"parents":[2147483647,0,0,1,1,2,2,3,3,4,4,5,5,9,9,10,10,11,11,12,12,13,13,14,14,17,17,18,18,19,19,21,21,22,22,23,23,24,24,25,25,26,26,27,27,31,31,32,32,33,33,35,35,36,36,37,37,38,38,39,39,45,45,46,46,47,47,48,48,49,49,50,50,52,52,57,57,61,61,62,62,66,66,67,67,68,68,70,70,72,72],"right_children":[2,4,6,8,10,12,-1,-1,-1,14,16,18,20,22,24,-1,-1,26,28,30,-1,32,34,36,38,40,42,44,-1,-1,-1,46,48,50,-1,52,54,56,58,60,-1,-1,-1,-1,-1,62,64,66,68,70,72,-1,74,-1,-1,-1,-1,76,-1,-1,-1,78,80,-1,-1,-1,82,84,86,-1,88,-1,90,-1,-1,-1,-1,-1,-1,-1,-1,-1,-1,-1,-1,-1,-1,-1,-1,-1,-1],"split_conditions":[2.6870731E1,5.85E1,2.9160635E1,5.1E1,8.55E1,5E-1,-2.9103085E-1,3.787268E-2,3.026498E-1,2.4580826E1,5E-1,5E-1,5E-1,2.5E0,1.5E0,-3.044963E-1,4.587098E-2,5E-1,6.75E1,6.75E1,-3.2600248E-1,5E-1,2.5E0,5E-1,2.5E0,2.5E0,1.5E0,5E-1,-2.5345868E-1,7.956557E-2,-1.3326555E-1,2.2290924E1,5E-1,5E-1,-6.7997195E-2,6.75E1,6.65E1,5E-1,5E-1,6.9E1,1.0091667E-1,5.6388993E-2,2.6939934E-1,-1.642632E-1,8.550366E-2,2.0001019E1,5E-1,1.8856068E1,7.25E1,5E-1,2.1145971E1,1.1516998E-1,5E-1,-7.2558306E-2,2.8963163E-1,-2.6301488E-1,-3.398553E-2,6.8E1,8.73653E-2,-2.4707003E-1,1.7756132E-2,1.7711115E1,7.45E1,-3.326876E-1,8.649772E-3,2.570276E-1,5E-1,2.0001019E1,2.1145971E1,2.6831028E-1,6.65E1,-1.1942474E-1,2.3435875E1,1.4703706E-2,-2.6293626E-1,-7.326933E-3,-1.7527096E-1,5.3838715E-2,-2.5462753E-1,-7.649131E-2,3.5683984E-1,-1.2057833E-2,1.0485335E-1,-1.14845455E-1,9.0618014E-2,1.5478486E-1,-2.9906708E-1,-1.0404157E-1,1.6866368E-1,1.9916563E-1,3.6029495E-2],"split_indices":[4,1,4,1,1,0,0,0,0,4,0,3,10,10,10,0,0,8,1,1,0,2,3,10,9,10,9,7,0,0,0,4,7,6,0,1,1,3,7,1,0,0,0,0,0,4,7,4,1,5,4,0,0,0,0,0,0,1,0,0,0,4,1,0,0,0,10,4,4,0,1,0,4,0,0,0,0,0,0,0,0,0,0,0,0,0,0,0,0,0,0],"split_type":[0,0,0,0,0,0,0,0,0,0,0,0,0,0,0,0,0,0,0,0,0,0,0,0,0,0,0,0,0,0,0,0,0,0,0,0,0,0,0,0,0,0,0,0,0,0,0,0,0,0,0,0,0,0,0,0,0,0,0,0,0,0,0,0,0,0,0,0,0,0,0,0,0,0,0,0,0,0,0,0,0,0,0,0,0,0,0,0,0,0,0],"sum_hessian":[1.11937775E2,8.795225E1,2.398553E1,2.7916508E0,8.51606E1,2.0376253E1,3.609276E0,1.2052841E0,1.5863668E0,8.1989456E1,3.1711397E0,1.4441513E1,5.934741E0,6.1864517E1,2.0124939E1,1.7468044E0,1.4243354E0,7.8519654E0,6.589547E0,2.8860323E0,3.0487087E0,4.846406E1,1.3400455E1,9.244353E0,1.0880585E1,4.609726E0,3.2422395E0,3.339943E0,3.2496045E0,1.43021E0,1.4558222E0,1.5543984E1,3.292008E1,1.186272E1,1.5377365E0,5.742571E0,3.501783E0,5.58027E0,5.3003144E0,2.6512277E0,1.9584984E0,1.0790776E0,2.1631618E0,1.3917065E0,1.9482366E0,1.1820294E1,3.7236903E0,2.0757698E1,1.2162379E1,7.0791845E0,4.7835345E0,1.960525E0,3.7820456E0,1.4271202E0,2.0746627E0,3.4362388E0,2.144031E0,2.8919945E0,2.40832E0,1.2868989E0,1.3643289E0,8.255192E0,3.5651026E0,2.5506911E0,1.1729991E0,2.0679054E0,1.8689793E1,7.7060857E0,4.4562936E0,4.1944714E0,2.8847132E0,1.1785291E0,3.6050055E0,1.9044061E0,1.8776397E0,1.6860213E0,1.2059731E0,6.1581225E0,2.097069E0,2.1083562E0,1.4567465E0,6.3743815E0,1.2315412E1,1.452954E0,6.253132E0,1.4450122E0,3.0112815E0,1.4638686E0,1.4208444E0,1.5687702E0,2.0362353E0],"tree_param":{"num_deleted":"0","num_feature":"11","num_nodes":"91","size_leaf_vector":"0"}},{"base_weights":[-4.5157753E-2,4.2720366E-2,-3.674983E-1,6.53596E-1,1.5636168E-2,-2.0696025E-1,-6.88903E-1,9.970154E-2,8.8024294E-1,7.0456845E-1,-6.4888E-3,-5.853257E-1,3.86344E-2,-2.0915231E-1,-1.0071461E0,2.9549696E-2,-8.235819E-1,-7.126014E-1,-7.938391E-2,3.646796E-1,-2.990195E-1,8.6741954E-2,-4.369004E-1,-5.2245826E-1,4.9539473E-2,-2.1509452E-1,-9.315118E-1,7.364402E-1,1.2561642E-2,9.814773E-2,-7.463867E-1,-1.287833E-1,1.1675331E-1,3.246156E-1,-3.1051052E-1,3.4256104E-1,-1.4088616E-1,1.9211902E-1,-4.668711E-1,-9.984529E-2,1.9657387E-1,-5.0598398E-2,8.3842444E-1,-2.8620285E-1,-9.549785E-1,1.1123282E-1,-8.459875E-1,1.1717368E-1,5.1556253E-1,1.7601776E-1,-6.249538E-1,-1.8105064E-2,-6.048122E-1,4.6171528E-1,-2.8896648E-1,-1.1088833E0,-1.5567991E-1,2.0246683E-1,-4.805799E-1,7.9210407E-1,-1.3076136E-1],"categories":[],"categories_nodes":[],"categories_segments":[],"categories_sizes":[],"default_left":[true,true,true,true,true,true,true,false,false,false,true,true,true,true,false,true,false,true,false,true,true,false,false,false,true,false,false,false,true,true,false,true,true,false,false,false,false,true,true,true,true,true,false,true,false,true,true,true,true,false,false,false,false,false,false,false,false,false,false,false,false],"id":4,"left_children":[1,3,5,7,9,11,13,-1,-1,-1,15,17,19,21,-1,23,-1,25,-1,27,29,-1,-1,-1,31,-1,-1,-1,33,35,-1,37,39,-1,-1,-1,-1,41,43,45,47,49,-1,51,-1,53,55,57,59,-1,-1,-1,-1,-1,-1,-1,-1,-1,-1,-1,-1],"loss_changes":[3.0993419E0,1.4198633E0,1.0660698E0,3.6983383E-1,1.2817575E0,1.6070726E0,9.151013E-1,0E0,0E0,0E0,2.444104E0,3.7959194E-1,1.350615E0,3.2111028E-1,0E0,9.049836E-1,0E0,3.753891E-1,0E0,8.007833E-1,1.1552708E0,0E0,0E0,0E0,9.4749784E-1,0E0,0E0,0E0,5.237518E-1,2.8835878E-1,0E0,2.4518075E0,1.0055423E0,0E0,0E0,0E0,0E0,1.9057753E0,6.873441E-1,2.6170259E0,1.0035167E0,1.3567181E0,0E0,7.9016393E-1,0E0,2.0088098E0,4.895153E-1,1.8781049E0,1.5473807E0,0E0,0E0,0E0,0E0,0E0,0E0,0E0,0E0,0E0,0E0,0E0,0E0],"parents":[2147483647,0,0,1,1,2,2,3,3,4,4,5,5,6,6,10,10,11,11,12,12,13,13,15,15,17,17,19,19,20,20,24,24,28,28,29,29,31,31,32,32,37,37,38,38,39,39,40,40,41,41,43,43,45,45,46,46,47,47,48,48],"right_children":[2,4,6,8,10,12,14,-1,-1,-1,16,18,20,22,-1,24,-1,26,-1,28,30,-1,-1,-1,32,-1,-1,-1,34,36,-1,38,40,-1,-1,-1,-1,42,44,46,48,50,-1,52,-1,54,56,58,60,-1,-1,-1,-1,-1,-1,-1,-1,-1,-1,-1,-1],"split_conditions":[2.6870731E1,5.85E1,5E-1,2.28634E1,1.3131308E1,1.5E0,5E-1,2.9910462E-2,2.640729E-1,2.1137054E-1,8.55E1,5E-1,5E-1,6.75E1,-3.0214384E-1,6.15E1,-2.4707457E-1,5E-1,-2.3815174E-2,2.5E0,2.5E0,2.6022587E-2,-1.3107012E-1,-1.5673748E-1,5E-1,-6.452836E-2,-2.7945355E-1,2.2093207E-1,6.35E1,2.8015682E1,-2.2391602E-1,7.05E1,5E-1,9.7384684E-2,-9.315316E-2,1.0276832E-1,-4.2265847E-2,1.5E0,5E-1,5E-1,7.75E1,2.2290924E1,2.5152734E-1,1.5E0,-2.8649357E-1,2.3435875E1,5E-1,7.55E1,8.05E1,5.280533E-2,-1.8748614E-1,-5.4315194E-3,-1.8144366E-1,1.385146E-1,-8.668995E-2,-3.32665E-1,-4.6703976E-2,6.074005E-2,-1.4417398E-1,2.3763123E-1,-3.922841E-2],"split_indices":[4,1,0,4,4,9,10,0,0,0,1,8,3,1,0,1,0,9,0,9,10,0,0,0,2,0,0,0,1,4,0,1,10,0,0,0,0,3,6,9,1,4,0,10,0,4,3,1,1,0,0,0,0,0,0,0,0,0,0,0,0],"split_type":[0,0,0,0,0,0,0,0,0,0,0,0,0,0,0,0,0,0,0,0,0,0,0,0,0,0,0,0,0,0,0,0,0,0,0,0,0,0,0,0,0,0,0,0,0,0,0,0,0,0,0,0,0,0,0,0,0,0,0,0,0],"sum_hessian":[1.07859985E2,8.543557E1,2.2424412E1,2.6450605E0,8.279051E1,1.6051027E1,6.3733845E0,1.1861556E0,1.458905E0,1.616317E0,8.1174194E1,5.77331E0,1.0277717E1,3.2026327E0,3.1707518E0,7.8668304E1,2.5058882E0,4.28652E0,1.4867903E0,5.1880217E0,5.089695E0,1.6622025E0,1.5404303E0,1.8707999E0,7.679751E1,1.9155997E0,2.3709202E0,1.9927008E0,3.195321E0,3.1096213E0,1.9800737E0,2.0771996E1,5.602551E1,1.6229466E0,1.5723743E0,1.3233663E0,1.786255E0,1.0878353E1,9.893642E0,1.5019148E1,4.1006363E1,8.578459E0,2.2998946E0,8.378699E0,1.5149429E0,1.2370537E1,2.6486106E0,3.3928474E1,7.0778856E0,6.6487026E0,1.9297559E0,5.1239305E0,3.254769E0,6.512965E0,5.8575716E0,1.4789921E0,1.1696185E0,3.0270483E1,3.6579928E0,4.798995E0,2.2788908E0],"tree_param":{"num_deleted":"0","num_feature":"11","num_nodes":"61","size_leaf_vector":"0"}},{"base_weights":[-4.492182E-2,-1.5789814E-2,-7.8474826E-1,2.7457E-2,-3.4798974E-1,6.8966225E-2,-3.041326E-1,-2.281264E-1,-7.404258E-1,9.68697E-3,3.9108145E-1,-6.6825524E-2,-6.7597336E-1,-1.2040651E-1,-5.4107404E-1,-6.8264194E-2,2.1122089E-1,7.456132E-1,-5.776627E-2,-4.4146335E-1,2.295919E-1,-1.12975E0,2.9308408E-1,-3.2909593E-1,1.5919878E-1,3.1846374E-1,-1.1786664E-1,3.4225208E-1,-3.9507013E-2,9.859253E-1,-2.1459842E-1,-7.7249724E-1,2.8684592E-1,-1.9121042E-2,-7.152683E-1,-2.3259921E-1,4.3883288E-1,-6.496941E-1,-6.272831E-2,3.1053495E-1,-1.1346654E-1,7.399688E-1,-8.6348064E-2,-1.7648731E-1,9.3782604E-2,5.484114E-1,9.039758E-3,-3.9098895E-1,2.3663603E-1,1.1883293E0,1.4987265E-1,7.141357E-1,-1.1923799E-2,6.3513225E-1,9.090384E-2,6.512973E-2,-1.5912339E-1,-2.220511E-2,4.8176897E-1,-3.5893726E-1,2.4029079E-1,-1.3305478E-1,-6.191016E-1,7.153708E-1,-2.5699642E-1,7.7386284E-1,3.968363E-2,-2.4214359E-1,4.764231E-1,1.109003E-1,-8.351649E-1,4.8159096E-2,4.5770904E-1,3.6318892E-1,-5.3025895E-1,-4.7556174E-1,-3.182347E-2,1.0056611E0,7.606846E-2,4.7971353E-2,-7.317658E-1,2.8235847E-1,9.4945693E-1,3.6457765E-1,-2.7613133E-1,-5.642706E-1,2.7638001E-2,3.965814E-1,-4.293942E-1],"categories":[],"categories_nodes":[],"categories_segments":[],"categories_sizes":[],"default_left":[true,true,false,true,true,true,true,true,false,true,true,true,true,true,false,true,true,true,true,true,true,false,false,true,true,true,true,true,true,true,false,false,true,false,false,false,true,false,true,true,false,false,true,true,true,true,true,true,true,false,false,false,true,false,false,false,false,false,false,false,false,true,false,true,true,true,true,true,false,false,false,true,false,false,false,false,false,false,false,false,false,false,false,false,false,false,false,false,false],"id":5,"left_children":[1,3,-1,5,7,9,11,13,-1,15,17,19,21,23,-1,25,27,29,31,33,35,-1,-1,37,39,41,43,45,47,49,-1,-1,51,-1,-1,-1,53,-1,55,57,-1,-1,59,61,63,65,67,69,71,-1,-1,-1,73,-1,-1,-1,-1,-1,-1,-1,-1,75,-1,77,79,81,83,85,-1,-1,-1,87,-1,-1,-1,-1,-1,-1,-1,-1,-1,-1,-1,-1,-1,-1,-1,-1,-1],"loss_changes":[2.2690642E0,1.4873784E0,0E0,1.2864857E0,3.918817E-1,1.5720885E0,8.737668E-1,2.914377E-1,0E0,1.1255322E0,2.0802546E0,9.305294E-1,2.0668867E0,5.866163E-1,0E0,1.0303645E0,6.696262E-1,1.8785987E0,1.8416834E0,4.07288E-1,5.6882966E-1,0E0,0E0,4.3478453E-1,2.2450766E-1,1.1139305E0,5.94752E-1,9.0316904E-1,8.448381E-1,8.299446E-1,0E0,0E0,6.6815126E-1,0E0,0E0,0E0,1.9283324E-1,0E0,6.1492167E-2,1.9400814E-1,0E0,0E0,4.4548258E-1,6.258657E-1,2.5301723E0,9.040532E-1,8.2792956E-1,9.369275E-1,1.8478161E-1,0E0,0E0,0E0,9.750708E-1,0E0,0E0,0E0,0E0,0E0,0E0,0E0,0E0,1.1922758E0,0E0,6.929841E-1,1.1376288E0,2.1464562E-1,4.6561977E-1,4.1630346E-1,0E0,0E0,0E0,8.020711E-1,0E0,0E0,0E0,0E0,0E0,0E0,0E0,0E0,0E0,0E0,0E0,0E0,0E0,0E0,0E0,0E0,0E0],"parents":[2147483647,0,0,1,1,3,3,4,4,5,5,6,6,7,7,9,9,10,10,11,11,12,12,13,13,15,15,16,16,17,17,18,18,19,19,20,20,23,23,24,24,25,25,26,26,27,27,28,28,29,29,32,32,36,36,38,38,39,39,42,42,43,43,44,44,45,45,46,46,47,47,48,48,52,52,61,61,63,63,64,64,65,65,66,66,67,67,71,71],"right_children":[2,4,-1,6,8,10,12,14,-1,16,18,20,22,24,-1,26,28,30,32,34,36,-1,-1,38,40,42,44,46,48,50,-1,-1,52,-1,-1,-1,54,-1,56,58,-1,-1,60,62,64,66,68,70,72,-1,-1,-1,74,-1,-1,-1,-1,-1,-1,-1,-1,76,-1,78,80,82,84,86,-1,-1,-1,88,-1,-1,-1,-1,-1,-1,-1,-1,-1,-1,-1,-1,-1,-1,-1,-1,-1],"split_conditions":[2.9160635E1,8.05E1,-2.3542449E-1,2.5E0,2.6870731E1,1.5E0,7.15E1,8.75E1,-2.2212775E-1,2.5E0,6.95E1,5E-1,7.75E1,8.35E1,-1.6232222E-1,1.7711115E1,2.572578E1,2.6870731E1,7.15E1,2.2290924E1,6.25E1,-3.38925E-1,8.7925225E-2,2.0001019E1,5E-1,5E-1,5E-1,5E-1,2.6870731E1,5E-1,-6.437953E-2,-2.3174918E-1,7.35E1,-5.736313E-3,-2.145805E-1,-6.977977E-2,1.5E0,-1.9490823E-1,2.2290924E1,2.2290924E1,-3.4039963E-2,2.2199064E-1,6.75E1,7.85E1,2.2290924E1,5E-1,5E-1,5E-1,6.75E1,3.564988E-1,4.4961795E-2,2.1424071E-1,5E-1,1.9053969E-1,2.7271153E-2,1.9538919E-2,-4.773702E-2,-6.6615334E-3,1.445307E-1,-1.07681185E-1,7.208724E-2,5E-1,-1.8573049E-1,7.45E1,5E-1,2.2290924E1,6.55E1,5E-1,1.4292695E-1,3.327009E-2,-2.505495E-1,6.35E1,1.3731273E-1,1.0895668E-1,-1.5907769E-1,-1.4266853E-1,-9.547042E-3,3.0169836E-1,2.282054E-2,1.4391406E-2,-2.1952975E-1,8.470754E-2,2.848371E-1,1.093733E-1,-8.28394E-2,-1.6928118E-1,8.291401E-3,1.18974425E-1,-1.2881826E-1],"split_indices":[4,1,0,3,4,3,1,1,0,10,1,9,1,1,0,4,4,4,1,4,1,0,0,4,7,3,6,6,4,5,0,0,1,0,0,0,9,0,4,4,0,0,1,1,4,5,0,8,1,0,0,0,7,0,0,0,0,0,0,0,0,2,0,1,0,4,1,2,0,0,0,1,0,0,0,0,0,0,0,0,0,0,0,0,0,0,0,0,0],"split_type":[0,0,0,0,0,0,0,0,0,0,0,0,0,0,0,0,0,0,0,0,0,0,0,0,0,0,0,0,0,0,0,0,0,0,0,0,0,0,0,0,0,0,0,0,0,0,0,0,0,0,0,0,0,0,0,0,0,0,0,0,0,0,0,0,0,0,0,0,0,0,0,0,0,0,0,0,0,0,0,0,0,0,0,0,0,0,0,0,0],"sum_hessian":[1.0485509E2,1.018653E2,2.9897878E0,9.094336E1,1.092194E1,8.152933E1,9.414033E0,9.5778475E0,1.3440922E0,6.972739E1,1.1801942E1,6.466718E0,2.947315E0,8.1554165E0,1.4224312E0,5.0756565E1,1.897082E1,6.224343E0,5.5775995E0,2.640322E0,3.826396E0,1.8944056E0,1.0529094E0,4.5685663E0,3.5868497E0,5.153867E0,4.56027E1,1.2219722E1,6.751098E0,4.95698E0,1.2673625E0,1.4105191E0,4.1670804E0,1.459259E0,1.1810629E0,1.1576458E0,2.66875E0,1.420171E0,3.1483955E0,2.217303E0,1.3695467E0,2.119271E0,3.034596E0,3.584172E1,9.760978E0,7.150102E0,5.0696197E0,2.7873697E0,3.9637284E0,3.6515918E0,1.3053885E0,1.1426494E0,3.024431E0,1.1784252E0,1.490325E0,1.4927561E0,1.6556394E0,1.0490749E0,1.1682281E0,1.6002564E0,1.4343396E0,3.382334E1,2.018381E0,3.1462955E0,6.614682E0,4.593321E0,2.556781E0,3.610932E0,1.4586874E0,1.6609409E0,1.1264288E0,2.796986E0,1.1667422E0,1.9282771E0,1.0961537E0,6.8726335E0,2.6950706E1,1.7696732E0,1.3766224E0,4.5749345E0,2.0397475E0,1.8955413E0,2.6977797E0,1.1841679E0,1.3726132E0,1.1482751E0,2.462657E0,1.7151618E0,1.0818243E0],"tree_param":{"num_deleted":"0","num_feature":"11","num_nodes":"89","size_leaf_vector":"0"}},{"base_weights":[-3.726796E-2,-1.3659941E-2,-6.771369E-1,6.2154984E-1,-2.9946757E-2,1.4994024E-2,-3.8407817E-1,4.89251E-2,-2.5291577E-1,-2.083718E-1,-7.738043E-1,5.532317E-3,2.938374E-1,-5.6250934E-2,-5.737464E-1,5.054026E-4,-6.264228E-1,9.85768E-2,-1.409906E-1,5.9522307E-1,-5.2228827E-2,-2.288458E-1,4.7333646E-1,-9.767292E-1,2.527156E-1,2.6605013E-1,-2.3637645E-1,-7.5118876E-1,-1.9114964E-1,2.1747069E-1,-1.0490936E-1,1.1163444E-1,-3.7208486E-1,8.169205E-1,-1.793987E-1,-6.5060943E-1,2.3492183E-1,-6.3003534E-1,8.977342E-2,6.926818E-1,-2.0794994E-1,-6.343266E-1,2.5645062E-1,7.1618664E-1,1.5434222E-1,1.9945835E-1,-2.2961502E-1,-4.1929787E-1,3.008339E-1,-7.643505E-1,-1.0268985E-1,1.0420485E0,-2.9169023E-2,6.019276E-1,-2.118957E-2,-1.9515456E-1,2.5392354E-1,2.980813E-2,5.412917E-1,6.955185E-1,-9.389173E-2,-6.003925E-1,-4.8005037E-2,-9.1112363E-1,4.4524616E-1,8.101362E-1,1.5978134E-1,-1.1086762E0,-2.7685064E-1,4.8823914E-1,-4.0358633E-1,3.100882E-1,-4.7479966E-1],"categories":[],"categories_nodes":[],"categories_segments":[],"categories_sizes":[],"default_left":[true,true,false,false,true,true,true,true,true,true,false,true,true,true,true,true,true,true,true,true,true,true,false,false,false,true,true,false,false,true,true,true,true,true,false,false,true,false,true,false,false,false,false,false,true,true,true,true,true,true,true,false,false,false,true,false,false,false,false,false,false,false,false,false,false,false,false,false,false,false,false,false,false],"id":6,"left_children":[1,3,-1,-1,5,7,9,11,13,15,-1,17,19,21,23,25,27,29,31,33,35,37,-1,-1,-1,39,41,-1,-1,43,45,47,49,51,-1,-1,53,-1,55,-1,-1,-1,-1,-1,57,59,61,63,65,67,69,-1,-1,-1,71,-1,-1,-1,-1,-1,-1,-1,-1,-1,-1,-1,-1,-1,-1,-1,-1,-1,-1],"loss_changes":[1.5466273E0,1.056817E0,0E0,0E0,1.5781242E0,8.181031E-1,6.0321033E-1,8.433471E-1,6.066268E-1,7.917112E-1,0E0,9.48601E-1,1.2772216E0,7.834671E-1,1.4922554E0,5.058889E-1,2.0439386E-2,1.051547E0,1.6201131E0,1.2571003E0,1.2664269E0,8.548285E-1,0E0,0E0,0E0,9.106518E-1,9.965262E-1,0E0,0E0,7.447008E-1,6.6663224E-1,1.5010499E0,1.4381853E0,1.0223794E0,0E0,0E0,4.9344727E-1,0E0,2.532852E-1,0E0,0E0,0E0,0E0,0E0,1.207244E0,8.3495307E-1,7.837673E-1,2.1123533E0,6.373188E-1,6.479025E-1,1.9153866E0,0E0,0E0,0E0,7.4502116E-1,0E0,0E0,0E0,0E0,0E0,0E0,0E0,0E0,0E0,0E0,0E0,0E0,0E0,0E0,0E0,0E0,0E0,0E0],"parents":[2147483647,0,0,1,1,4,4,5,5,6,6,7,7,8,8,9,9,11,11,12,12,13,13,14,14,15,15,16,16,17,17,18,18,19,19,20,20,21,21,25,25,26,26,29,29,30,30,31,31,32,32,33,33,36,36,38,38,44,44,45,45,46,46,47,47,48,48,49,49,50,50,54,54],"right_children":[2,4,-1,-1,6,8,10,12,14,16,-1,18,20,22,24,26,28,30,32,34,36,38,-1,-1,-1,40,42,-1,-1,44,46,48,50,52,-1,-1,54,-1,56,-1,-1,-1,-1,-1,58,60,62,64,66,68,70,-1,-1,-1,72,-1,-1,-1,-1,-1,-1,-1,-1,-1,-1,-1,-1,-1,-1,-1,-1,-1,-1],"split_conditions":[2.9160635E1,1.3131308E1,-2.0314108E-1,1.8646497E-1,8.05E1,2.5E0,1.5E0,1.5E0,7.15E1,8.55E1,-2.321413E-1,5E-1,6.95E1,7.05E1,7.75E1,5E-1,2.1145971E1,5E-1,2.3435875E1,2.6870731E1,7.15E1,5E-1,1.4200094E-1,-2.930188E-1,7.581468E-2,5E-1,5E-1,-2.2535664E-1,-5.7344895E-2,5.7E1,5E-1,5E-1,6.45E1,5E-1,-5.381961E-2,-1.9518284E-1,7.35E1,-1.890106E-1,6.25E1,2.0780455E-1,-6.238498E-2,-1.9029798E-1,7.693519E-2,2.14856E-1,5E-1,6.35E1,6.55E1,7.45E1,5E-1,2.572578E1,2.4580826E1,3.1261456E-1,-8.750707E-3,1.8057828E-1,2.4580826E1,-5.854637E-2,7.617706E-2,8.942439E-3,1.6238752E-1,2.0865555E-1,-2.8167522E-2,-1.8011776E-1,-1.4401511E-2,-2.733371E-1,1.3357386E-1,2.4304087E-1,4.79344E-2,-3.3260286E-1,-8.30552E-2,1.4647175E-1,-1.21075906E-1,9.302646E-2,-1.424399E-1],"split_indices":[4,4,0,0,1,3,10,3,1,1,0,0,1,1,1,0,4,3,4,4,1,9,0,0,0,7,10,0,0,1,2,10,1,5,0,0,1,0,1,0,0,0,0,0,8,1,1,1,9,4,4,0,0,0,4,0,0,0,0,0,0,0,0,0,0,0,0,0,0,0,0,0,0],"split_type":[0,0,0,0,0,0,0,0,0,0,0,0,0,0,0,0,0,0,0,0,0,0,0,0,0,0,0,0,0,0,0,0,0,0,0,0,0,0,0,0,0,0,0,0,0,0,0,0,0,0,0,0,0,0,0,0,0,0,0,0,0,0,0,0,0,0,0,0,0,0,0,0,0],"sum_hessian":[1.0199702E2,9.935274E1,2.64428E0,1.554692E0,9.779804E1,8.7634514E1,1.0163531E1,7.850868E1,9.125831E0,8.063017E0,2.100515E0,6.756102E1,1.09476595E1,6.3863897E0,2.7394412E0,6.042634E0,2.0203824E0,4.1521442E1,2.6039577E1,5.466751E0,5.4809084E0,5.2449245E0,1.1414652E0,1.7192938E0,1.0201473E0,2.7908995E0,3.2517347E0,1.0061845E0,1.0141981E0,2.616494E1,1.5356504E1,1.2687226E1,1.335235E1,4.207854E0,1.2588973E0,1.3668492E0,4.1140594E0,1.8889986E0,3.355926E0,1.2260337E0,1.5648657E0,1.6401894E0,1.6115453E0,1.7775283E0,2.4387411E1,4.288987E0,1.1067517E1,3.0137794E0,9.673448E0,4.6883564E0,8.663994E0,3.1405964E0,1.0672572E0,1.1359682E0,2.978091E0,1.157641E0,2.1982849E0,1.9264458E1,5.122953E0,1.084362E0,3.2046254E0,2.8805666E0,8.18695E0,1.886628E0,1.1271513E0,1.0692334E0,8.604214E0,2.0008965E0,2.68746E0,2.7131124E0,5.950882E0,1.9039842E0,1.0741068E0],"tree_param":{"num_deleted":"0","num_feature":"11","num_nodes":"73","size_leaf_vector":"0"}},{"base_weights":[-3.1191664E-2,-1.1937739E-2,-5.8567935E-1,5.271245E-1,-2.5636245E-2,-5.770037E-3,-6.094623E-1,2.8091136E-2,-1.7310528E-1,-7.1996486E-1,-1.9096239E-1,8.7832665E-1,2.8097287E-3,-3.0205843E-1,1.4818414E-1,6.997176E-2,-9.140954E-2,-5.840477E-1,1.6123149E-1,4.8435402E-1,-5.374458E-1,2.068968E-1,-6.9977045E-2,-1.633978E-1,2.8946048E-1,-9.951329E-1,-2.8529218E-1,-2.5354037E-1,6.2541646E-1,7.0179855E-3,9.4381E-1,8.700808E-2,7.982907E-1,2.4447568E-1,-1.867279E-1,-8.442579E-3,-2.8612348E-1,5.9237796E-1,-2.8237456E-1,-4.8039863E-1,-4.3851625E-2,2.0917206E-1,-7.422888E-1,9.758178E-1,2.4729373E-1,4.3053892E-1,-3.8721815E-2,4.1769454E-1,-3.1168523E-1,3.0146015E-1,-2.8574845E-1,-6.464942E-1,-9.598882E-2,-2.066645E-2,8.608666E-1,2.9556665E-1,-4.5126438E-1],"categories":[],"categories_nodes":[],"categories_segments":[],"categories_sizes":[],"default_left":[true,true,false,false,true,true,true,true,true,false,false,false,true,true,true,true,true,true,true,true,false,true,true,true,true,false,true,false,false,false,false,true,true,true,true,true,true,true,false,false,true,false,false,false,false,false,false,false,false,false,false,false,false,false,false,false,false],"id":7,"left_children":[1,3,-1,-1,5,7,9,11,13,-1,-1,-1,15,17,19,21,23,25,27,29,-1,31,33,35,37,-1,39,-1,-1,-1,-1,41,43,45,47,49,51,53,-1,-1,55,-1,-1,-1,-1,-1,-1,-1,-1,-1,-1,-1,-1,-1,-1,-1,-1],"loss_changes":[1.0646758E0,7.374201E-1,0E0,0E0,1.1163883E0,5.396858E-1,9.014964E-3,1.7034662E0,7.08704E-1,0E0,0E0,0E0,5.004525E-1,1.6311208E0,1.4728246E0,8.988091E-1,9.500711E-1,6.408329E-1,1.1664646E0,8.8288856E-1,0E0,1.6023468E0,9.109593E-1,5.3635883E-1,1.1364125E0,0E0,2.5038368E-1,0E0,0E0,0E0,0E0,2.255147E0,1.3547969E-1,3.757556E-1,1.4711785E0,1.2507592E0,1.0191298E0,6.7292094E-1,0E0,0E0,6.416908E-1,0E0,0E0,0E0,0E0,0E0,0E0,0E0,0E0,0E0,0E0,0E0,0E0,0E0,0E0,0E0,0E0],"parents":[2147483647,0,0,1,1,4,4,5,5,6,6,7,7,8,8,12,12,13,13,14,14,15,15,16,16,17,17,18,18,19,19,21,21,22,22,23,23,24,24,26,26,31,31,32,32,33,33,34,34,35,35,36,36,37,37,40,40],"right_children":[2,4,-1,-1,6,8,10,12,14,-1,-1,-1,16,18,20,22,24,26,28,30,-1,32,34,36,38,-1,40,-1,-1,-1,-1,42,44,46,48,50,52,54,-1,-1,56,-1,-1,-1,-1,-1,-1,-1,-1,-1,-1,-1,-1,-1,-1,-1,-1],"split_conditions":[2.9160635E1,1.3131308E1,-1.7570381E-1,1.5813737E-1,8.55E1,5E-1,5E-1,1.6566162E1,7.45E1,-2.1598947E-1,-5.7288717E-2,2.63498E-1,5E-1,1.5E0,1.5E0,5E-1,2.5E0,5E-1,6.65E1,5E-1,-1.6123374E-1,7.85E1,6.35E1,2.3435875E1,2.4580826E1,-2.9853988E-1,5E-1,-7.606211E-2,1.8762495E-1,2.1053958E-3,2.83143E-1,7.55E1,8.1E1,2.5E0,2.1145971E1,7.15E1,6.55E1,2.1145971E1,-8.471237E-2,-1.4411959E-1,5E-1,6.275162E-2,-2.2268666E-1,2.9274535E-1,7.418812E-2,1.2916169E-1,-1.1616545E-2,1.2530836E-1,-9.3505576E-2,9.0438046E-2,-8.572454E-2,-1.9394827E-1,-2.8796647E-2,-6.1999355E-3,2.5825998E-1,8.867E-2,-1.3537931E-1],"split_indices":[4,4,0,0,1,5,6,4,1,0,0,0,0,10,10,7,9,3,1,9,0,1,1,4,4,0,2,0,0,0,0,1,1,9,4,1,1,4,0,0,9,0,0,0,0,0,0,0,0,0,0,0,0,0,0,0,0],"split_type":[0,0,0,0,0,0,0,0,0,0,0,0,0,0,0,0,0,0,0,0,0,0,0,0,0,0,0,0,0,0,0,0,0,0,0,0,0,0,0,0,0,0,0,0,0,0,0,0,0,0,0,0,0,0,0,0,0],"sum_hessian":[9.9380394E1,9.7032585E1,2.3478117E0,1.4758201E0,9.555676E1,9.338885E1,2.1679163E0,7.836367E1,1.5025177E1,1.1451893E0,1.022727E0,1.2884943E0,7.707517E1,1.0764556E1,4.260621E0,4.514906E1,3.1926115E1,6.5295706E0,4.234986E0,3.055868E0,1.2047532E0,2.257927E1,2.256979E1,2.7331226E1,4.594888E0,1.7671113E0,4.7624593E0,2.4761868E0,1.758799E0,1.9967192E0,1.0591486E0,1.9727242E1,2.8520274E0,5.814696E0,1.6755095E1,1.2551859E1,1.4779367E1,2.9802432E0,1.6146452E0,2.0865855E0,2.6758738E0,1.78461E1,1.8811426E0,1.5739188E0,1.2781086E0,3.1951656E0,2.6195302E0,2.4691315E0,1.4285963E1,5.886409E0,6.6654496E0,4.2755446E0,1.0503823E1,1.1888194E0,1.7914237E0,1.609509E0,1.0663648E0],"tree_param":{"num_deleted":"0","num_feature":"11","num_nodes":"57","size_leaf_vector":"0"}},{"base_weights":[-2.2081494E-2,-6.2129623E-3,-5.0652266E-1,2.0513782E-2,-2.1619335E-1,5.1934734E-2,-2.3520432E-1,-2.8852525E-1,1.4908057E-1,3.518679E-1,1.7903347E-2,-3.739589E-1,-4.706312E-3,-3.8764134E-1,-3.922586E-3,8.3182186E-2,8.2687837E-1,4.9660966E-2,-2.315932E-1,-7.4650985E-1,3.8691208E-2,2.9734316E-1,-2.6479894E-1,-7.7662664E-3,-5.448997E-1,-4.2288834E-1,3.6884597E-1,-5.2647007E-1,4.5048377E-1,2.9329556E-1,-1.1947198E-2,-4.3822408E-1,1.2673247E-1,5.0387E-1,-4.0350607E-1,-6.9432926E-1,-8.3244465E-2,7.870226E-1,1.0293637E-1,7.5397533E-1,-9.7496785E-2,-1.00221016E-1,1.5803699E-1,-8.344253E-1,-2.4189226E-2,-2.6362568E-1,4.710386E-1,-2.1869189E-1,-8.05681E-1,2.7354744E-1,-1.3250454E-1,4.7064364E-2,9.6941155E-1,-3.5999572E-1,5.563797E-1,-2.1694711E-1,1.5176275E-1,2.8182563E-1,-1.9151002E-2,-2.2365697E-1,2.4943013E-1,1.27363E0,-4.686088E-2,-6.3451904E-1,2.5586265E-1,-7.2886294E-1,-1.493861E-1,3.023163E-1,-3.6611292E-1,5.786253E-1,-6.434085E-2,-1.4404601E-1,4.2638856E-1],"categories":[],"categories_nodes":[],"categories_segments":[],"categories_sizes":[],"default_left":[true,true,false,true,true,true,true,true,false,true,true,true,true,true,true,true,false,true,true,false,true,false,false,false,true,false,false,false,true,true,true,true,true,false,false,true,false,false,true,true,true,true,true,false,true,false,false,false,false,false,false,false,true,true,false,true,true,true,true,false,false,false,false,false,false,false,false,false,false,false,false,false,false],"id":8,"left_children":[1,3,-1,5,7,9,11,13,-1,15,17,19,21,23,25,27,-1,29,31,-1,33,-1,-1,-1,35,-1,-1,-1,37,39,41,43,45,-1,-1,47,-1,-1,49,51,53,55,57,-1,59,-1,-1,-1,-1,-1,-1,-1,61,63,-1,65,67,69,71,-1,-1,-1,-1,-1,-1,-1,-1,-1,-1,-1,-1,-1,-1],"loss_changes":[7.511828E-1,5.433416E-1,0E0,7.039963E-1,3.3176857E-1,7.846998E-1,3.0534565E-1,2.654248E-1,0E0,9.3223375E-1,5.713025E-1,9.484014E-1,4.417658E-1,4.1445255E-1,6.955124E-1,1.607913E0,0E0,9.5659196E-1,6.5927875E-1,0E0,9.826381E-1,0E0,0E0,0E0,2.8313982E-1,0E0,0E0,0E0,4.2881334E-1,2.387802E0,7.9074E-1,8.649999E-1,6.292665E-1,0E0,0E0,1.4337063E-2,0E0,0E0,1.6859582E-1,8.7034225E-1,1.5460641E0,1.050696E0,4.010768E-1,0E0,2.5600842E-1,0E0,0E0,0E0,0E0,0E0,0E0,0E0,1.4690633E0,1.210866E0,0E0,7.2323847E-1,1.0106592E0,1.1349015E0,5.2638924E-1,0E0,0E0,0E0,0E0,0E0,0E0,0E0,0E0,0E0,0E0,0E0,0E0,0E0,0E0],"parents":[2147483647,0,0,1,1,3,3,4,4,5,5,6,6,7,7,9,9,10,10,11,11,12,12,13,13,14,14,15,15,17,17,18,18,20,20,24,24,28,28,29,29,30,30,31,31,32,32,35,35,38,38,39,39,40,40,41,41,42,42,44,44,52,52,53,53,55,55,56,56,57,57,58,58],"right_children":[2,4,-1,6,8,10,12,14,-1,16,18,20,22,24,26,28,-1,30,32,-1,34,-1,-1,-1,36,-1,-1,-1,38,40,42,44,46,-1,-1,48,-1,-1,50,52,54,56,58,-1,60,-1,-1,-1,-1,-1,-1,-1,62,64,-1,66,68,70,72,-1,-1,-1,-1,-1,-1,-1,-1,-1,-1,-1,-1,-1,-1],"split_conditions":[2.9160635E1,8.05E1,-1.519568E-1,2.5E0,5E-1,1.7711115E1,5E-1,5E-1,4.4724174E-2,7.45E1,5E-1,5E-1,6.7E1,8.25E1,8.25E1,1.5421211E1,2.4806352E-1,5E-1,1.5E0,-2.2395296E-1,1.5E0,8.9202955E-2,-7.9439685E-2,-2.32988E-3,1.5E0,-1.268665E-1,1.10653795E-1,-1.5794103E-1,5E-1,5E-1,2.5E0,5E-1,6.65E1,1.5116102E-1,-1.21051826E-1,2.2290924E1,-2.497334E-2,2.3610678E-1,5E-1,5E-1,5E-1,5E-1,2.572578E1,-2.503276E-1,5E-1,-7.9087704E-2,1.4131159E-1,-6.560757E-2,-2.417043E-1,8.206423E-2,-3.9751362E-2,1.4119309E-2,5E-1,1.5E0,1.6691391E-1,5E-1,7.55E1,5E-1,7.55E1,-6.709709E-2,7.482904E-2,3.8208902E-1,-1.4058265E-2,-1.9035572E-1,7.67588E-2,-2.186589E-1,-4.481583E-2,9.06949E-2,-1.0983388E-1,1.735876E-1,-1.9302256E-2,-4.3213803E-2,1.2791657E-1],"split_indices":[4,1,0,3,8,4,7,5,0,1,5,9,1,1,1,4,0,9,10,0,9,0,0,0,3,0,0,0,3,3,10,3,1,0,0,4,0,0,10,2,6,8,4,0,0,0,0,0,0,0,0,0,8,3,0,10,1,6,1,0,0,0,0,0,0,0,0,0,0,0,0,0,0],"split_type":[0,0,0,0,0,0,0,0,0,0,0,0,0,0,0,0,0,0,0,0,0,0,0,0,0,0,0,0,0,0,0,0,0,0,0,0,0,0,0,0,0,0,0,0,0,0,0,0,0,0,0,0,0,0,0,0,0,0,0,0,0,0,0,0,0,0,0,0,0,0,0,0,0],"sum_hessian":[9.7125854E1,9.502597E1,2.0998802E0,8.509696E1,9.929013E0,7.64947E1,8.602258E0,8.463228E0,1.4657845E0,6.843194E0,6.9651505E1,4.9812584E0,3.6209993E0,6.008617E0,2.454612E0,5.1214213E0,1.7217728E0,6.249737E1,7.1541348E0,2.1926317E0,2.7886264E0,1.6091032E0,2.0118961E0,2.066395E0,3.9422216E0,1.0923896E0,1.3622223E0,1.762558E0,3.3588634E0,1.1855025E1,5.0642345E1,4.396111E0,2.7580237E0,1.2910305E0,1.497596E0,2.5974684E0,1.3447535E0,1.064031E0,2.2948322E0,5.014457E0,6.840568E0,3.360268E1,1.7039665E1,1.7275865E0,2.6685247E0,1.4023889E0,1.3556349E0,1.0550048E0,1.5424634E0,1.2367649E0,1.0580673E0,1.4558471E0,3.55861E0,5.2017627E0,1.6388057E0,2.3059776E1,1.0542905E1,9.6837635E0,7.355902E0,1.6490037E0,1.0195209E0,2.543872E0,1.014738E0,3.5769923E0,1.6247702E0,1.5473264E0,2.151245E1,8.490762E0,2.052143E0,4.852099E0,4.831664E0,6.273882E0,1.0820205E0],"tree_param":{"num_deleted":"0","num_feature":"11","num_nodes":"73","size_leaf_vector":"0"}},{"base_weights":[-1.626465E-2,2.5707731E-2,-1.8099284E-1,4.4427454E-1,7.6218196E-3,-3.8179204E-1,4.380255E-3,-3.9253265E-2,7.220653E-1,-3.5036483E-1,3.1192763E-2,-3.44205E-2,-6.630621E-1,1.4111643E-1,-6.422536E-1,1.422238E-1,-6.711723E-1,3.6423036E-1,-1.5180195E-3,-2.409556E-1,2.859173E-1,-5.843122E-1,2.963178E-1,6.793322E-1,-4.8887253E-1,4.427911E-1,-1.7672323E-2,4.9516362E-1,-2.4619092E-1,9.733892E-1,1.5648228E-1,4.5156763E-3,-5.047648E-1,7.224737E-1,1.3757525E-1,-4.412718E-1,6.801674E-1,-3.478906E-2,1.4817302E-1,3.179132E-1,-1.2310556E-1,3.3791465E-4,-2.894743E-1,-1.4719775E-1,3.1551674E-1,1.3766798E-1,-4.0453408E-2,1.0891044E-2,-7.8426474E-1,3.3345082E-1,-6.058138E-1,1.1874493E-1,8.418831E-1],"categories":[],"categories_nodes":[],"categories_segments":[],"categories_sizes":[],"default_left":[true,true,true,true,true,true,true,false,false,true,true,true,false,true,false,false,false,true,true,false,false,false,true,true,false,false,true,true,false,false,true,true,false,false,true,false,false,true,true,false,false,true,true,true,true,false,false,false,false,false,false,false,false],"id":9,"left_children":[1,3,5,7,9,11,13,-1,-1,15,17,19,-1,21,-1,-1,-1,23,25,-1,-1,-1,27,29,-1,-1,31,33,-1,-1,35,37,-1,-1,39,-1,-1,41,43,-1,-1,45,47,49,51,-1,-1,-1,-1,-1,-1,-1,-1],"loss_changes":[6.6998017E-1,5.8378655E-1,7.336367E-1,4.5752203E-1,6.468978E-1,9.0056884E-1,1.0821217E0,0E0,0E0,8.4413826E-1,7.8089726E-1,4.1844028E-1,0E0,1.3075922E0,0E0,0E0,0E0,2.0553408E0,4.8312438E-1,0E0,0E0,0E0,1.0888872E0,6.317744E-1,0E0,0E0,7.0325094E-1,4.6078372E-1,0E0,0E0,1.2477963E0,3.6101714E-1,0E0,0E0,2.2311449E-1,0E0,0E0,4.500544E-1,7.250637E-1,0E0,0E0,2.5876215E-1,9.147002E-1,1.4468372E0,8.4070665E-1,0E0,0E0,0E0,0E0,0E0,0E0,0E0,0E0],"parents":[2147483647,0,0,1,1,2,2,3,3,4,4,5,5,6,6,9,9,10,10,11,11,13,13,17,17,18,18,22,22,23,23,26,26,27,27,30,30,31,31,34,34,37,37,38,38,41,41,42,42,43,43,44,44],"right_children":[2,4,6,8,10,12,14,-1,-1,16,18,20,-1,22,-1,-1,-1,24,26,-1,-1,-1,28,30,-1,-1,32,34,-1,-1,36,38,-1,-1,40,-1,-1,42,44,-1,-1,46,48,50,52,-1,-1,-1,-1,-1,-1,-1,-1],"split_conditions":[2.6870731E1,5.85E1,1.5E0,5.1E1,6.25E1,5E-1,5E-1,-1.177598E-2,2.1661961E-1,1.5E0,6.35E1,5E-1,-1.9891864E-1,5.95E1,-1.9267608E-1,4.2667143E-2,-2.013517E-1,2.4580826E1,1.3131308E1,-7.228669E-2,8.57752E-2,-1.7529367E-1,6.95E1,5E-1,-1.4666176E-1,1.3283734E-1,8.55E1,5E-1,-7.385728E-2,2.9201677E-1,1.5E0,7.75E1,-1.5142944E-1,2.1674211E-1,6.35E1,-1.3238154E-1,2.0405023E-1,2.5E0,5E-1,9.5373966E-2,-3.693167E-2,5E-1,7.15E1,5E-1,2.572578E1,4.1300397E-2,-1.2136023E-2,3.2673131E-3,-2.3527943E-1,1.0003525E-1,-1.8174414E-1,3.562348E-2,2.5256494E-1],"split_indices":[4,1,9,1,1,10,0,0,0,9,1,8,0,1,0,0,0,4,4,0,0,0,1,0,0,0,1,3,0,0,3,1,0,0,1,0,0,3,10,0,0,9,1,0,4,0,0,0,0,0,0,0,0],"split_type":[0,0,0,0,0,0,0,0,0,0,0,0,0,0,0,0,0,0,0,0,0,0,0,0,0,0,0,0,0,0,0,0,0,0,0,0,0,0,0,0,0,0,0,0,0,0,0,0,0,0,0,0,0],"sum_hessian":[9.5228516E1,7.6564095E1,1.8664423E1,2.1952062E0,7.436889E1,8.450795E0,1.0213628E1,1.1143107E0,1.0808953E0,3.737708E0,7.063118E1,4.283277E0,4.167518E0,9.076164E0,1.1374638E0,1.6937239E0,2.0439842E0,5.4104996E0,6.522068E1,2.7548916E0,1.5283853E0,1.112297E0,7.963867E0,4.0998664E0,1.310633E0,1.3615801E0,6.3859097E1,5.8916645E0,2.0722024E0,2.072544E0,2.0273225E0,6.2024494E1,1.8346057E0,2.978133E0,2.9135315E0,1.0201997E0,1.0071229E0,4.9295143E1,1.2729348E1,1.5923799E0,1.3211517E0,4.4197906E1,5.097238E0,4.6471906E0,8.082158E0,9.577819E0,3.4620087E1,3.7803462E0,1.316892E0,2.402349E0,2.2448418E0,6.7750363E0,1.3071213E0],"tree_param":{"num_deleted":"0","num_feature":"11","num_nodes":"53","size_leaf_vector":"0"}},{"base_weights":[-1.2941603E-2,1.6377553E-4,-4.3595472E-1,2.1828009E-2,-1.7366627E-1,5.4076158E-2,-1.3644657E-1,-2.461186E-1,1.6210385E-1,7.7650654E-1,2.9345855E-2,1.1709605E-1,-4.1312253E-1,-1.2813386E-1,-4.655019E-1,4.7487333E-2,-3.2767227E-1,-2.7882713E-1,3.6411616E-1,-7.412577E-1,-1.1112E-1,-5.0115865E-1,9.96859E-2,1.2256447E-3,2.4426243E-1,-5.6105965E-1,3.3909753E-2,-4.5596808E-1,-5.099145E-3,6.809908E-1,8.863552E-2,-2.4576928E-1,-9.0000105E-1,-4.1677278E-1,4.779363E-1,5.233192E-1,-4.8572642E-1,-1.6101365E-1,9.472453E-2,5.4111695E-1,1.1835244E-3,-2.4065217E-1,3.9492378E-1,-5.132092E-1,-1.0751348E-1,8.777978E-2,6.6601986E-1,-2.7052142E-2,-8.3918405E-1,1.3312441E-1,-3.202969E-1,7.2459865E-1,-9.751286E-2,-1.7964563E-1,6.0251427E-1,2.9544088E-1,-1.9206174E-1,-1.7937455E-1,-1.0767162E0,4.3350762E-1,4.7634322E-2,-7.018588E-1,2.129506E-1,8.713602E-1,2.5640267E-1,-4.036764E-1,2.9831082E-1],"categories":[],"categories_nodes":[],"categories_segments":[],"categories_sizes":[],"default_left":[true,true,false,true,true,true,true,true,false,false,true,true,true,true,false,true,true,true,true,true,true,false,true,true,true,false,false,false,false,false,true,false,false,true,false,true,false,true,true,true,true,false,false,false,false,false,false,true,true,true,true,true,false,true,false,false,false,false,false,false,false,false,false,false,false,false,false],"id":10,"left_children":[1,3,-1,5,7,9,11,13,-1,-1,15,17,19,21,-1,23,25,27,29,31,33,-1,35,37,39,-1,-1,-1,-1,-1,41,-1,-1,43,-1,45,-1,47,49,51,53,-1,-1,-1,-1,-1,-1,55,57,59,61,63,-1,65,-1,-1,-1,-1,-1,-1,-1,-1,-1,-1,-1,-1,-1],"loss_changes":[5.220205E-1,3.5146326E-1,0E0,4.3090764E-1,2.9150212E-1,1.2215722E0,1.0535384E0,1.708231E-1,0E0,0E0,4.5847115E-1,9.0899134E-1,6.1852276E-1,6.5927184E-1,0E0,6.0005724E-1,3.0876496E-1,1.7894322E-1,4.2130733E-1,3.1556368E-2,1.0741038E0,0E0,1.5649683E0,8.4048504E-1,9.048494E-1,0E0,0E0,0E0,0E0,0E0,5.086882E-1,0E0,0E0,5.6169927E-2,0E0,1.6203707E-1,0E0,1.8178889E0,6.026889E-1,7.323756E-1,9.67417E-1,0E0,0E0,0E0,0E0,0E0,0E0,1.0120151E0,3.254044E-1,8.2350177E-1,8.1474614E-1,8.616352E-2,0E0,8.533565E-1,0E0,0E0,0E0,0E0,0E0,0E0,0E0,0E0,0E0,0E0,0E0,0E0,0E0],"parents":[2147483647,0,0,1,1,3,3,4,4,5,5,6,6,7,7,10,10,11,11,12,12,13,13,15,15,16,16,17,17,18,18,19,19,20,20,22,22,23,23,24,24,30,30,33,33,35,35,37,37,38,38,39,39,40,40,47,47,48,48,49,49,50,50,51,51,53,53],"right_children":[2,4,-1,6,8,10,12,14,-1,-1,16,18,20,22,-1,24,26,28,30,32,34,-1,36,38,40,-1,-1,-1,-1,-1,42,-1,-1,44,-1,46,-1,48,50,52,54,-1,-1,-1,-1,-1,-1,56,58,60,62,64,-1,66,-1,-1,-1,-1,-1,-1,-1,-1,-1,-1,-1,-1,-1],"split_conditions":[2.9160635E1,8.05E1,-1.3078642E-1,5E-1,5E-1,1.6566162E1,2.0001019E1,1.5E0,4.8631158E-2,2.3295197E-1,3.5E0,5E-1,6.65E1,5E-1,-1.3965058E-1,1.5E0,4.5E0,1.5421211E1,6.55E1,5E-1,1.5E0,-1.503476E-1,5E-1,6.55E1,6.75E1,-1.683179E-1,1.0172926E-2,-1.3679042E-1,-1.5297437E-3,2.0429726E-1,7.1E1,-7.373079E-2,-2.7000034E-1,7.3E1,1.433809E-1,2.1718449E1,-1.4571793E-1,6.45E1,2.8015682E1,2.6870731E1,7.75E1,-7.219566E-2,1.18477136E-1,-1.5396278E-1,-3.2254044E-2,2.6333936E-2,1.9980596E-1,1.5E0,2.3435875E1,5E-1,1.5E0,2.5E0,-2.9253861E-2,5E-1,1.8075429E-1,8.863227E-2,-5.7618525E-2,-5.3812366E-2,-3.2301486E-1,1.300523E-1,1.4290297E-2,-2.1055765E-1,6.388518E-2,2.6140806E-1,7.692081E-2,-1.2110292E-1,8.9493245E-2],"split_indices":[4,1,0,5,8,4,4,10,0,0,3,10,1,2,0,3,3,4,1,9,10,0,7,1,1,0,0,0,0,0,1,0,0,1,0,4,0,1,4,4,1,0,0,0,0,0,0,10,4,9,10,3,0,8,0,0,0,0,0,0,0,0,0,0,0,0,0],"split_type":[0,0,0,0,0,0,0,0,0,0,0,0,0,0,0,0,0,0,0,0,0,0,0,0,0,0,0,0,0,0,0,0,0,0,0,0,0,0,0,0,0,0,0,0,0,0,0,0,0,0,0,0,0,0,0,0,0,0,0,0,0,0,0,0,0,0,0],"sum_hessian":[9.3150955E1,9.132134E1,1.8296154E0,8.197884E1,9.342498E0,6.8649895E1,1.3328948E1,7.903982E0,1.4385152E0,1.2660682E0,6.738383E1,7.2562137E0,6.0727344E0,6.1698756E0,1.7341069E0,6.495043E1,2.4333947E0,2.738381E0,4.5178328E0,2.2133667E0,3.8593676E0,1.8844817E0,4.2853937E0,5.340191E1,1.1548523E1,1.1435784E0,1.2898161E0,1.2583067E0,1.4800742E0,1.4164898E0,3.1013432E0,1.1553549E0,1.0580119E0,2.7334788E0,1.1258888E0,2.5477693E0,1.7376244E0,1.9259949E1,3.414196E1,4.6471734E0,6.9013495E0,1.5978279E0,1.5035151E0,1.580997E0,1.1524818E0,1.0273396E0,1.5204297E0,1.6951372E1,2.3085773E0,3.1872217E1,2.269744E0,3.5054305E0,1.1417428E0,5.8449416E0,1.0564082E0,5.47014E0,1.1481232E1,1.0756973E0,1.23288E0,6.1593823E0,2.5712835E1,1.1387333E0,1.1310105E0,2.0132515E0,1.4921789E0,4.085413E0,1.7595288E0],"tree_param":{"num_deleted":"0","num_feature":"11","num_nodes":"67","size_leaf_vector":"0"}},{"base_weights":[-1.3265975E-2,4.1121095E-1,-2.3774033E-2,-1.03378715E-2,-4.534555E-1,8.767231E-4,-3.7587187E-1,2.571663E-2,-1.2383155E-1,6.713271E-1,7.644581E-3,-1.8370137E-1,3.4694988E-1,-1.896427E-1,3.0970687E-2,2.9288186E-2,-3.8570642E-1,-5.452828E-1,1.3842997E-1,1.6108376E-1,-3.2614045E-2,5.23485E-1,-2.1254683E-1,-6.42525E-1,-1.4706211E-1,-8.413724E-1,-1.507086E-1,4.200425E-1,-3.1579542E-1,2.7258587E-1,-8.42357E-2,4.852165E-2,-1.7171316E-1,-3.9891E-1,2.4726276E-1,-3.454934E-1,2.3579141E-1,-1.8260767E-1,3.582427E-1,-7.49601E-1,2.376224E-1,1.6253732E-1,-1.8416697E-1,-6.309765E-1,-1.0229358E-1,-7.0422375E-1,-3.8982354E-2,-4.248774E-1,-9.0448454E-2],"categories":[],"categories_nodes":[],"categories_segments":[],"categories_sizes":[],"default_left":[true,false,true,true,false,true,false,true,true,false,true,true,false,true,true,true,true,true,true,true,true,false,true,false,true,false,false,false,false,true,true,true,true,true,false,true,false,false,false,false,false,false,false,false,false,false,false,false,false],"id":11,"left_children":[1,-1,3,5,-1,7,-1,9,11,-1,13,15,-1,17,19,21,23,25,27,29,31,-1,33,-1,35,-1,-1,-1,-1,37,39,41,43,45,-1,47,-1,-1,-1,-1,-1,-1,-1,-1,-1,-1,-1,-1,-1],"loss_changes":[4.2352188E-1,0E0,5.23357E-1,3.6809433E-1,0E0,2.7591246E-1,0E0,8.611261E-1,4.8075593E-1,0E0,3.428976E-1,6.0418355E-1,0E0,9.9532706E-1,5.5419254E-1,1.0240047E0,3.4328997E-1,3.3881056E-1,7.592223E-1,6.233574E-1,5.207346E-1,0E0,5.989908E-1,0E0,4.6126294E-1,0E0,0E0,0E0,0E0,6.6300774E-1,1.8105758E0,8.1138885E-1,4.757466E-1,4.7119343E-1,0E0,3.6449164E-2,0E0,0E0,0E0,0E0,0E0,0E0,0E0,0E0,0E0,0E0,0E0,0E0,0E0],"parents":[2147483647,0,0,2,2,3,3,5,5,7,7,8,8,10,10,11,11,13,13,14,14,15,15,16,16,17,17,18,18,19,19,20,20,22,22,24,24,29,29,30,30,31,31,32,32,33,33,35,35],"right_children":[2,-1,4,6,-1,8,-1,10,12,-1,14,16,-1,18,20,22,24,26,28,30,32,-1,34,-1,36,-1,-1,-1,-1,38,40,42,44,46,-1,48,-1,-1,-1,-1,-1,-1,-1,-1,-1,-1,-1,-1,-1],"split_conditions":[1.3131308E1,1.2336329E-1,8.55E1,2.9160635E1,-1.3603666E-1,5E-1,-1.12761565E-1,1.6566162E1,8.15E1,2.0139815E-1,2.0001019E1,2.0001019E1,1.0408497E-1,6.95E1,2.3435875E1,6.55E1,6.65E1,1.5E0,1.5E0,7.55E1,5E-1,1.5704551E-1,7.55E1,-1.9275752E-1,1.5E0,-2.5241172E-1,-4.521258E-2,1.2601276E-1,-9.473863E-2,6.25E1,7.75E1,7.05E1,5E-1,1.6566162E1,7.417883E-2,7.3E1,7.073743E-2,-5.47823E-2,1.07472815E-1,-2.2488031E-1,7.128672E-2,4.87612E-2,-5.5250093E-2,-1.8929295E-1,-3.0688075E-2,-2.1126713E-1,-1.1694707E-2,-1.2746322E-1,-2.7134538E-2],"split_indices":[4,0,1,4,0,5,0,4,1,0,4,4,0,1,4,1,1,9,9,1,0,0,1,0,10,0,0,0,0,1,1,1,2,4,0,1,0,0,0,0,0,0,0,0,0,0,0,0,0],"split_type":[0,0,0,0,0,0,0,0,0,0,0,0,0,0,0,0,0,0,0,0,0,0,0,0,0,0,0,0,0,0,0,0,0,0,0,0,0,0,0,0,0,0,0,0,0,0,0,0,0],"sum_hessian":[9.175919E1,1.2954656E0,9.046373E1,8.871371E1,1.7500228E0,8.7040886E1,1.6728159E0,7.324536E1,1.3795527E1,1.0101799E0,7.223518E1,1.27800665E1,1.0154608E0,6.8837566E0,6.5351425E1,6.6370864E0,6.14298E0,2.9854093E0,3.8983474E0,2.0949406E1,4.440202E1,1.7980607E0,4.839026E0,2.1436653E0,3.9993148E0,1.0586442E0,1.926765E0,2.4528651E0,1.4454821E0,1.4326573E1,6.6228313E0,2.8455353E1,1.5946668E1,3.5376456E0,1.3013804E0,2.6983533E0,1.3009615E0,2.0897057E0,1.2236868E1,1.7259204E0,4.896911E0,1.9299986E1,9.155366E0,1.0317225E0,1.4914945E1,1.3964858E0,2.1411595E0,1.5500124E0,1.1483411E0],"tree_param":{"num_deleted":"0","num_feature":"11","num_nodes":"49","size_leaf_vector":"0"}},{"base_weights":[-1.7054254E-2,3.5299298E-1,-2.6020909E-2,-2.8101932E-3,-2.21315E-1,-1.2933992E-2,3.5634404E-1,-7.241509E-2,-5.8298665E-1,9.11399E-3,-1.9285274E-1,-5.234883E-1,8.6844735E-2,-1.9743228E-2,1.8556796E-1,-3.8950384E-2,-4.7195855E-1,4.1131514E-1,-1.0749422E-1,-1.6956824E-1,2.5776345E-2,4.407337E-1,-7.282081E-2,2.7019837E-1,-2.7886635E-1,-2.982834E-1,2.6312363E-1,-2.6621673E-1,2.791824E-1,-8.9839086E-2,1.20448284E-1,6.666359E-1,-1.5596586E-1,2.450457E-1,-3.2723925E-1,5.875579E-1,-1.6038239E-1,4.580483E-2,-5.1312274E-1,1.5578227E-1,-6.994056E-1,-4.7241467E-1,1.1359261E-1,5.0270844E-1,-8.233786E-2,2.0652883E-2,-2.8486717E-1,1.9436565E-1,-8.622948E-2,3.3034876E-1,2.8250704E-2,-4.8113194E-1,-8.04119E-2,-6.452165E-1,1.9942708E-1,2.520838E-1,-2.3871994E-1,4.5708495E-1,-9.188561E-2,-5.5003893E-1,1.1072668E-1,2.939622E-1,-9.223398E-2,2.532611E-2,-4.1313598E-1],"categories":[],"categories_nodes":[],"categories_segments":[],"categories_sizes":[],"default_left":[true,false,true,true,true,true,false,true,false,true,true,false,true,true,true,true,false,false,true,true,true,true,true,true,true,true,false,true,true,true,true,false,false,true,true,false,false,false,false,false,false,true,true,false,false,true,true,true,true,false,false,false,false,false,false,false,false,false,false,false,false,false,false,false,false],"id":12,"left_children":[1,-1,3,5,7,9,-1,11,-1,13,15,-1,17,19,21,23,-1,-1,25,27,29,31,33,35,37,39,-1,41,43,45,47,-1,-1,49,51,-1,-1,-1,-1,-1,-1,53,55,-1,-1,57,59,61,63,-1,-1,-1,-1,-1,-1,-1,-1,-1,-1,-1,-1,-1,-1,-1,-1],"loss_changes":[3.1263822E-1,0E0,4.0834662E-1,3.014924E-1,4.732081E-1,3.2060272E-1,0E0,6.145325E-1,0E0,3.731261E-1,3.6046532E-1,0E0,4.6746993E-1,4.3582553E-1,7.1082616E-1,5.7783943E-1,0E0,0E0,4.3137982E-1,7.194121E-1,5.5141777E-1,8.2126284E-1,5.6324065E-1,5.681596E-1,3.510529E-1,7.943988E-1,0E0,1.0521812E0,2.9382682E-1,4.9737704E-1,4.3812543E-1,0E0,0E0,5.0349906E-2,1.0359743E-1,0E0,0E0,0E0,0E0,0E0,0E0,1.1105431E0,3.1840762E-1,0E0,0E0,8.028924E-1,9.3327785E-1,6.1578405E-1,3.0069625E-1,0E0,0E0,0E0,0E0,0E0,0E0,0E0,0E0,0E0,0E0,0E0,0E0,0E0,0E0,0E0,0E0],"parents":[2147483647,0,0,2,2,3,3,4,4,5,5,7,7,9,9,10,10,12,12,13,13,14,14,15,15,18,18,19,19,20,20,21,21,22,22,23,23,24,24,25,25,27,27,28,28,29,29,30,30,33,33,34,34,41,41,42,42,45,45,46,46,47,47,48,48],"right_children":[2,-1,4,6,8,10,-1,12,-1,14,16,-1,18,20,22,24,-1,-1,26,28,30,32,34,36,38,40,-1,42,44,46,48,-1,-1,50,52,-1,-1,-1,-1,-1,-1,54,56,-1,-1,58,60,62,64,-1,-1,-1,-1,-1,-1,-1,-1,-1,-1,-1,-1,-1,-1,-1,-1],"split_conditions":[1.3131308E1,1.05897896E-1,8.05E1,7.95E1,1.5E0,2.5E0,1.0690322E-1,1.7711115E1,-1.74896E-1,1.5E0,7.15E1,-1.570465E-1,8.25E1,5E-1,6.95E1,2.2290924E1,-1.4158757E-1,1.2339455E-1,1.5E0,5E-1,6.65E1,2.6870731E1,5E-1,5E-1,6.4E1,5E-1,7.893709E-2,2.572578E1,7.1E1,5E-1,5E-1,1.9999076E-1,-4.678976E-2,7.35E1,2.2290924E1,1.7626739E-1,-4.811472E-2,1.3741449E-2,-1.5393683E-1,4.6734683E-2,-2.0982169E-1,7.65E1,2.8015682E1,1.5081254E-1,-2.4701359E-2,1.5E0,5E-1,7.55E1,5E-1,9.9104635E-2,8.475211E-3,-1.4433959E-1,-2.4123572E-2,-1.9356497E-1,5.982813E-2,7.5625144E-2,-7.161599E-2,1.3712549E-1,-2.7565684E-2,-1.6501169E-1,3.3218004E-2,8.818866E-2,-2.7670195E-2,7.5978334E-3,-1.23940796E-1],"split_indices":[4,0,1,1,10,3,0,4,0,3,1,0,1,10,1,4,0,0,3,6,1,4,9,5,1,6,0,4,1,3,6,0,0,1,4,0,0,0,0,0,0,1,4,0,0,10,7,1,3,0,0,0,0,0,0,0,0,0,0,0,0,0,0,0,0],"split_type":[0,0,0,0,0,0,0,0,0,0,0,0,0,0,0,0,0,0,0,0,0,0,0,0,0,0,0,0,0,0,0,0,0,0,0,0,0,0,0,0,0,0,0,0,0,0,0,0,0,0,0,0,0,0,0,0,0,0,0,0,0,0,0,0,0],"sum_hessian":[9.045424E1,1.2322651E0,8.922198E1,8.0650986E1,8.570986E0,7.9377495E1,1.2734959E0,6.921595E0,1.6493912E0,7.1557846E1,7.8196483E0,1.2093456E0,5.7122493E0,6.226342E1,9.294425E0,5.7748694E0,2.044779E0,1.7215117E0,3.9907377E0,1.3873718E1,4.83897E1,4.321314E0,4.973111E0,2.4681988E0,3.3066704E0,2.763366E0,1.2273717E0,1.1749879E1,2.123839E0,2.1808155E1,2.6581545E1,3.04958E0,1.2717339E0,2.227254E0,2.7458575E0,1.2110349E0,1.2571639E0,1.7230502E0,1.5836202E0,1.5830294E0,1.1803367E0,7.45743E0,4.292449E0,1.0710651E0,1.0527737E0,1.4491939E1,7.316217E0,1.962303E1,6.9585156E0,1.2224631E0,1.0047908E0,1.1066281E0,1.6392294E0,5.96327E0,1.4941596E0,3.2854526E0,1.0069966E0,2.3432121E0,1.2148726E1,4.14641E0,3.1698067E0,1.4543361E1,5.0796695E0,5.875911E0,1.0826044E0],"tree_param":{"num_deleted":"0","num_feature":"11","num_nodes":"65","size_leaf_vector":"0"}},{"base_weights":[-1.47867985E-2,1.4113225E-2,-1.3067578E-1,3.9456818E-1,-2.2125153E-3,-6.1297487E-2,-6.1470264E-1,-6.260639E-2,6.542733E-1,-4.1493922E-1,1.4294205E-2,4.516152E-2,-3.2096773E-1,-1.0830121E-1,6.079188E-2,-2.9532358E-1,2.2044131E-1,8.703503E-2,-7.2099066E-1,3.375278E-2,-4.6502477E-1,3.441139E-1,2.814323E-2,-3.5346672E-2,-5.391123E-1,-4.746234E-1,3.7322465E-1,2.6069635E-1,-9.660338E-2,-1.744642E-1,2.7730334E-1,-1.5210882E-1,-7.9797846E-1,-1.932512E-1,5.779864E-1,2.983805E-1,-1.1300623E-2,2.6237255E-1,-2.801938E-1,6.437234E-1,7.101494E-2,-4.804316E-1,2.8323913E-1,4.822835E-1,-1.9134438E-1,-4.5372915E-1,2.7216923E-1,8.7488735E-1,-1.7144544E-2,6.252356E-1,1.3579879E-2,-2.0336047E-1,5.939735E-2,4.0535858E-1,-2.2425188E-1,-1.6406372E-1,-8.605194E-1,-2.794999E-1,9.1351014E-1,7.7346624E-3,7.583885E-1,2.0158476E-1,-1.8659785E-1,2.3336029E-1,-3.98547E-1,-2.445201E-1,1.3063246E-1,1.7999326E-1,-4.8611754E-1,-3.376034E-1,5.4569957E-3,4.7966987E-1,-2.3330635E-1,-6.484143E-1,-1.17411315E-1,1.8702951E-1,-4.7312155E-1,5.3601928E-2,3.788374E-1],"categories":[],"categories_nodes":[],"categories_segments":[],"categories_sizes":[],"default_left":[true,true,true,true,true,true,false,false,false,false,true,true,true,true,true,true,true,true,false,true,true,true,true,true,false,false,true,false,false,true,true,true,false,false,true,true,true,false,false,false,true,true,true,true,false,false,false,false,false,false,true,true,true,false,true,true,false,false,false,false,false,false,false,true,true,true,true,false,false,false,false,false,false,false,false,false,false,false,false],"id":13,"left_children":[1,3,5,7,9,11,-1,-1,-1,-1,13,15,17,19,21,23,25,27,-1,29,31,33,35,37,-1,-1,39,-1,-1,41,43,45,-1,-1,47,49,51,-1,-1,-1,53,55,57,59,-1,-1,-1,-1,-1,-1,61,63,65,-1,67,69,-1,-1,-1,-1,-1,-1,-1,71,73,75,77,-1,-1,-1,-1,-1,-1,-1,-1,-1,-1,-1,-1],"loss_changes":[3.0464634E-1,4.5594925E-1,5.715958E-1,3.995495E-1,4.913186E-1,4.838853E-1,0E0,0E0,0E0,0E0,4.0261108E-1,8.3611894E-1,8.886792E-1,1.0019919E0,4.6216235E-1,2.863006E-1,1.1436421E0,1.3353512E-1,0E0,8.015738E-1,4.632082E-1,7.629065E-1,5.025243E-1,3.214852E-1,0E0,0E0,6.099807E-1,0E0,0E0,1.3433719E0,7.869793E-1,6.5175945E-1,0E0,0E0,6.9721127E-1,5.501319E-1,5.8002084E-1,0E0,0E0,0E0,5.7586056E-1,5.24729E-1,1.7035174E0,6.905544E-1,0E0,0E0,0E0,0E0,0E0,0E0,1.967708E-1,1.0715983E0,7.105958E-1,0E0,4.317992E-1,1.2710096E-1,0E0,0E0,0E0,0E0,0E0,0E0,0E0,5.92005E-1,5.071559E-1,7.100509E-1,4.776891E-1,0E0,0E0,0E0,0E0,0E0,0E0,0E0,0E0,0E0,0E0,0E0,0E0],"parents":[2147483647,0,0,1,1,2,2,3,3,4,4,5,5,10,10,11,11,12,12,13,13,14,14,15,15,16,16,17,17,19,19,20,20,21,21,22,22,23,23,26,26,29,29,30,30,31,31,34,34,35,35,36,36,40,40,41,41,42,42,43,43,50,50,51,51,52,52,54,54,55,55,63,63,64,64,65,65,66,66],"right_children":[2,4,6,8,10,12,-1,-1,-1,-1,14,16,18,20,22,24,26,28,-1,30,32,34,36,38,-1,-1,40,-1,-1,42,44,46,-1,-1,48,50,52,-1,-1,-1,54,56,58,60,-1,-1,-1,-1,-1,-1,62,64,66,-1,68,70,-1,-1,-1,-1,-1,-1,-1,72,74,76,78,-1,-1,-1,-1,-1,-1,-1,-1,-1,-1,-1,-1],"split_conditions":[2.6870731E1,5.85E1,7.7E1,2.28634E1,6.15E1,5E-1,-1.844108E-1,-1.8781917E-2,1.9628198E-1,-1.24481775E-1,5E-1,1.5E0,5E-1,2.2290924E1,1.8856068E1,5E-1,5.95E1,5E-1,-2.1629721E-1,1.5E0,7.45E1,6.85E1,6.35E1,5E-1,-1.617337E-1,-1.4238703E-1,2.5E0,7.820891E-2,-2.8981015E-2,7.45E1,7.05E1,6.75E1,-2.3939355E-1,-5.797536E-2,1.5E0,2.3435875E1,2.2290924E1,7.871177E-2,-8.405814E-2,1.9311704E-1,6.35E1,1.8283592E1,2.0001019E1,1.8856068E1,-5.7403315E-2,-1.3611875E-1,8.165077E-2,2.6246622E-1,-5.1433635E-3,1.8757069E-1,5E-1,5E-1,6.55E1,1.2160758E-1,5E-1,6.65E1,-2.5815582E-1,-8.384997E-2,2.7405307E-1,2.3203988E-3,2.2751656E-1,6.0475428E-2,-5.597936E-2,7.55E1,7.45E1,1.5E0,2.5E0,5.399798E-2,-1.4583527E-1,-1.01281025E-1,1.6370987E-3,1.4390096E-1,-6.999191E-2,-1.945243E-1,-3.5223395E-2,5.6108855E-2,-1.4193647E-1,1.6080579E-2,1.1365122E-1],"split_indices":[4,1,1,4,1,0,0,0,0,0,2,10,10,4,4,3,1,7,0,9,1,1,1,9,0,0,9,0,0,1,1,1,0,0,3,4,4,0,0,0,1,4,4,4,0,0,0,0,0,0,0,9,1,0,7,1,0,0,0,0,0,0,0,1,1,10,9,0,0,0,0,0,0,0,0,0,0,0,0],"split_type":[0,0,0,0,0,0,0,0,0,0,0,0,0,0,0,0,0,0,0,0,0,0,0,0,0,0,0,0,0,0,0,0,0,0,0,0,0,0,0,0,0,0,0,0,0,0,0,0,0,0,0,0,0,0,0,0,0,0,0,0,0,0,0,0,0,0,0,0,0,0,0,0,0,0,0,0,0,0,0],"sum_hessian":[8.941042E1,7.2266945E1,1.714348E1,2.0201812E0,7.024676E1,1.5979667E1,1.1638148E0,1.006794E0,1.0133872E0,1.7731869E0,6.847357E1,1.1919159E1,4.060508E0,1.8463549E1,5.0010025E1,3.8179097E0,8.101249E0,2.3975525E0,1.6629552E0,1.3852575E1,4.6109734E0,4.1817E0,4.5828327E1,2.4017096E0,1.4162002E0,1.0802594E0,7.0209894E0,1.0165828E0,1.3809698E0,7.62093E0,6.231645E0,3.1280353E0,1.4829378E0,1.3207424E0,2.8609576E0,5.0009804E0,4.0827343E1,1.0515327E0,1.3501768E0,3.1085577E0,3.9124317E0,4.5378156E0,3.0831146E0,4.315158E0,1.9164876E0,1.7877235E0,1.3403119E0,1.595109E0,1.2658486E0,1.771989E0,3.2289915E0,1.0480176E1,3.034717E1,1.6599461E0,2.2524855E0,3.2578096E0,1.280006E0,1.9228413E0,1.1602734E0,1.9653218E0,2.3498359E0,1.6614995E0,1.567492E0,3.1767564E0,7.3034196E0,5.300508E0,2.5046661E1,1.0084224E0,1.2440631E0,1.1198715E0,2.137938E0,2.0610545E0,1.1157018E0,3.175073E0,4.1283464E0,1.8984681E0,3.4020398E0,2.0042439E1,5.0042233E0],"tree_param":{"num_deleted":"0","num_feature":"11","num_nodes":"79","size_leaf_vector":"0"}},{"base_weights":[-1.5189389E-2,-5.349728E-3,-3.4340313E-1,3.332095E-1,-1.39737725E-2,8.873086E-3,-2.0778947E-1,2.5130656E-1,-5.9691924E-3,-8.7371826E-2,-4.9081722E-1,-9.931821E-2,4.7961748E-1,-4.551015E-2,1.0248994E-1,-4.595549E-1,4.7814235E-2,-9.582073E-2,6.9174744E-2,2.0685986E-1,-7.874076E-2,3.3671862E-1,-1.2216689E-1,6.8573064E-1,-1.372228E-1,3.4104133E-1,-1.0727929E-1,-2.5243443E-1,2.947008E-1,-1.940313E-1,3.5664433E-1,-3.8324428E-1,1.082132E-1,-8.06056E-1,-9.136937E-2,5.64454E-2,5.070707E-1,1.728829E-1,-2.479894E-1,6.125942E-1,-1.5775014E-1,-3.9702255E-1,2.3957078E-1,-8.445698E-2,2.4596405E-1,-3.6239024E-2,-3.741785E-1,3.2465696E-1,-2.504444E-1,8.6969554E-1,8.312955E-2,3.6279038E-1,-3.2107215E-2,-5.123452E-1,3.7591483E-2,7.845425E-1,-1.5419523E-1,-6.237675E-1,8.6905025E-2,8.054134E-2,-5.831452E-1],"categories":[],"categories_nodes":[],"categories_segments":[],"categories_sizes":[],"default_left":[true,true,false,false,true,true,true,true,true,true,false,false,false,true,true,false,true,true,true,true,true,false,true,false,true,true,true,false,true,true,false,false,true,false,true,true,true,true,true,true,true,true,false,false,false,false,false,false,false,false,false,false,false,false,false,false,false,false,false,false,false],"id":14,"left_children":[1,3,-1,-1,5,7,9,11,13,15,-1,-1,-1,17,19,-1,21,23,25,27,29,-1,31,-1,33,35,37,-1,39,41,-1,-1,43,-1,45,47,49,51,53,55,57,59,-1,-1,-1,-1,-1,-1,-1,-1,-1,-1,-1,-1,-1,-1,-1,-1,-1,-1,-1],"loss_changes":[2.8447E-1,2.589336E-1,0E0,0E0,3.8215038E-1,2.8140113E-1,2.671721E-1,4.0873E-1,3.2320693E-1,4.0429306E-1,0E0,0E0,0E0,3.2469213E-1,3.9746338E-1,0E0,3.5934827E-1,1.3474946E0,8.707959E-1,6.014307E-1,4.7521544E-1,0E0,3.309792E-1,0E0,1.0800922E0,3.0608803E-1,4.885706E-1,0E0,1.7402571E0,7.150068E-1,0E0,0E0,1.0933359E-1,0E0,5.5293965E-1,3.8875496E-1,5.961969E-1,1.8173464E-1,6.184466E-1,1.032903E0,6.8252707E-1,5.068079E-1,0E0,0E0,0E0,0E0,0E0,0E0,0E0,0E0,0E0,0E0,0E0,0E0,0E0,0E0,0E0,0E0,0E0,0E0,0E0],"parents":[2147483647,0,0,1,1,4,4,5,5,6,6,7,7,8,8,9,9,13,13,14,14,16,16,17,17,18,18,19,19,20,20,22,22,24,24,25,25,26,26,28,28,29,29,32,32,34,34,35,35,36,36,37,37,38,38,39,39,40,40,41,41],"right_children":[2,4,-1,-1,6,8,10,12,14,16,-1,-1,-1,18,20,-1,22,24,26,28,30,-1,32,-1,34,36,38,-1,40,42,-1,-1,44,-1,46,48,50,52,54,56,58,60,-1,-1,-1,-1,-1,-1,-1,-1,-1,-1,-1,-1,-1,-1,-1,-1,-1,-1,-1],"split_conditions":[2.9160635E1,1.3131308E1,-1.0302094E-1,9.996286E-2,8.05E1,1.6566162E1,1.5E0,1.5421211E1,2.5E0,1.7711115E1,-1.4724517E-1,-2.9795462E-2,1.4388525E-1,2.572578E1,2.572578E1,-1.3786648E-1,8.25E1,6.05E1,2.6870731E1,6.1E1,7.55E1,1.0101559E-1,5E-1,2.057192E-1,6.25E1,6.85E1,5E-1,-7.573033E-2,5E-1,2.8015682E1,1.069933E-1,-1.14973284E-1,5E-1,-2.4181682E-1,2.4580826E1,6.55E1,7.35E1,5E-1,1.5E0,7.3E1,2.1145971E1,6.15E1,7.1871236E-2,-2.5337094E-2,7.378922E-2,-1.0871707E-2,-1.12253554E-1,9.73971E-2,-7.513332E-2,2.6090866E-1,2.4938865E-2,1.0883712E-1,-9.632165E-3,-1.5370357E-1,1.1277446E-2,2.3536275E-1,-4.6258572E-2,-1.8713026E-1,2.607151E-2,2.4162404E-2,-1.7494357E-1],"split_indices":[4,4,0,0,1,4,10,4,10,4,0,0,0,4,4,0,1,1,4,1,1,0,3,0,1,1,10,0,6,4,0,0,0,0,4,1,1,7,9,1,4,1,0,0,0,0,0,0,0,0,0,0,0,0,0,0,0,0,0,0,0],"split_type":[0,0,0,0,0,0,0,0,0,0,0,0,0,0,0,0,0,0,0,0,0,0,0,0,0,0,0,0,0,0,0,0,0,0,0,0,0,0,0,0,0,0,0,0,0,0,0,0,0,0,0,0,0,0,0,0,0,0,0,0,0],"sum_hessian":[8.765336E1,8.608877E1,1.5645925E0,1.2035367E0,8.488523E1,7.678776E1,8.097468E0,3.5107894E0,7.327697E1,6.598682E0,1.4987866E0,1.6073362E0,1.9034534E0,5.4125004E1,1.9151966E1,1.1188717E0,5.47981E0,3.7735485E1,1.6389519E1,1.2063333E1,7.088634E0,1.6664872E0,3.813323E0,1.1154925E0,3.6619995E1,6.0836134E0,1.0305904E1,1.6359042E0,1.0427428E1,6.0428305E0,1.0458038E0,1.4765255E0,2.3367975E0,1.2858076E0,3.5334187E1,2.7351623E0,3.348451E0,3.369127E0,6.9367776E0,5.916518E0,4.51091E0,4.1734076E0,1.8694229E0,1.1354897E0,1.2013078E0,3.051398E1,4.820206E0,1.4286635E0,1.3064989E0,1.2380295E0,2.1104214E0,1.3493054E0,2.0198216E0,3.1899068E0,3.746871E0,4.8138795E0,1.1026385E0,1.019464E0,3.491446E0,1.3294635E0,2.843944E0],"tree_param":{"num_deleted":"0","num_feature":"11","num_nodes":"61","size_leaf_vector":"0"}}]},"name":"gbtree"},"learner_model_param":{"base_score":"5E-1","num_class":"0","num_feature":"11"},"objective":{"name":"binary:logistic","reg_loss_param":{"scale_pos_weight":"1"}}},"version":[1,3,3]}